{"learner":{"attributes":{"scikit_learn":"{\"_estimator_type\": \"regressor\"}"},"feature_names":["holiday_encoded","is_holiday","day","month","year","dayofweek","dayofyear","weekofyear","quarter","is_weekend","price_lag_1","price_lag_2","price_lag_3","price_lag_7","price_lag_14","price_lag_30","rolling_mean_3","rolling_std_3","rolling_mean_7","rolling_std_7","rolling_mean_14","rolling_std_14","rolling_mean_30","rolling_std_30","price_diff_1"],"feature_types":["int","int","int","int","int","int","int","int","int","int","float","float","float","float","float","float","float","float","float","float","float","float","float","float","float"],"gradient_booster":{"model":{"gbtree_model_param":{"num_parallel_tree":"1","num_trees":"300"},"iteration_indptr":[0,1,2,3,4,5,6,7,8,9,10,11,12,13,14,15,16,17,18,19,20,21,22,23,24,25,26,27,28,29,30,31,32,33,34,35,36,37,38,39,40,41,42,43,44,45,46,47,48,49,50,51,52,53,54,55,56,57,58,59,60,61,62,63,64,65,66,67,68,69,70,71,72,73,74,75,76,77,78,79,80,81,82,83,84,85,86,87,88,89,90,91,92,93,94,95,96,97,98,99,100,101,102,103,104,105,106,107,108,109,110,111,112,113,114,115,116,117,118,119,120,121,122,123,124,125,126,127,128,129,130,131,132,133,134,135,136,137,138,139,140,141,142,143,144,145,146,147,148,149,150,151,152,153,154,155,156,157,158,159,160,161,162,163,164,165,166,167,168,169,170,171,172,173,174,175,176,177,178,179,180,181,182,183,184,185,186,187,188,189,190,191,192,193,194,195,196,197,198,199,200,201,202,203,204,205,206,207,208,209,210,211,212,213,214,215,216,217,218,219,220,221,222,223,224,225,226,227,228,229,230,231,232,233,234,235,236,237,238,239,240,241,242,243,244,245,246,247,248,249,250,251,252,253,254,255,256,257,258,259,260,261,262,263,264,265,266,267,268,269,270,271,272,273,274,275,276,277,278,279,280,281,282,283,284,285,286,287,288,289,290,291,292,293,294,295,296,297,298,299,300],"tree_info":[0,0,0,0,0,0,0,0,0,0,0,0,0,0,0,0,0,0,0,0,0,0,0,0,0,0,0,0,0,0,0,0,0,0,0,0,0,0,0,0,0,0,0,0,0,0,0,0,0,0,0,0,0,0,0,0,0,0,0,0,0,0,0,0,0,0,0,0,0,0,0,0,0,0,0,0,0,0,0,0,0,0,0,0,0,0,0,0,0,0,0,0,0,0,0,0,0,0,0,0,0,0,0,0,0,0,0,0,0,0,0,0,0,0,0,0,0,0,0,0,0,0,0,0,0,0,0,0,0,0,0,0,0,0,0,0,0,0,0,0,0,0,0,0,0,0,0,0,0,0,0,0,0,0,0,0,0,0,0,0,0,0,0,0,0,0,0,0,0,0,0,0,0,0,0,0,0,0,0,0,0,0,0,0,0,0,0,0,0,0,0,0,0,0,0,0,0,0,0,0,0,0,0,0,0,0,0,0,0,0,0,0,0,0,0,0,0,0,0,0,0,0,0,0,0,0,0,0,0,0,0,0,0,0,0,0,0,0,0,0,0,0,0,0,0,0,0,0,0,0,0,0,0,0,0,0,0,0,0,0,0,0,0,0,0,0,0,0,0,0,0,0,0,0,0,0,0,0,0,0,0,0,0,0,0,0,0,0,0,0,0,0,0,0,0,0,0,0,0,0],"trees":[{"base_weights":[-4.5374045E2,-1.2332758E4,1.5715853E4,-2.160249E4,-4.0826538E3,8.453422E3,2.58616E4,-1.21667E3,-9.03913E2,-7.306164E3,-2.2270107E3,5.241911E3,6.274889E2,1.1283894E3,1.9213489E3,-8.21383E3,-1.8856851E2,-3.6515234E3,-3.1595856E2,3.5509536E3,3.6313043E2,-4.4032028E2,-2.3360411E2,-1.9263159E2,-1.0019375E2,-9.001907E1,5.452833E1,3.591875E1,2.081034E2],"categories":[],"categories_nodes":[],"categories_segments":[],"categories_sizes":[],"default_left":[0,0,0,0,0,0,0,0,0,0,0,0,0,0,0,0,0,0,0,0,0,0,0,0,0,0,0,0,0],"id":0,"left_children":[1,3,5,7,9,11,13,-1,-1,15,17,19,-1,-1,-1,21,-1,23,25,27,-1,-1,-1,-1,-1,-1,-1,-1,-1],"loss_changes":[6.03145E10,1.3754008E10,9.581191E9,3.781632E8,5.639524E8,9.734989E8,1.4091264E9,0E0,0E0,8.131699E7,1.7035229E8,1.3138893E8,0E0,0E0,0E0,1.5522048E7,0E0,4.20864E6,6.0424028E7,4.3747904E7,0E0,0E0,0E0,0E0,0E0,0E0,0E0,0E0,0E0],"parents":[2147483647,0,0,1,1,2,2,3,3,4,4,5,5,6,6,9,9,10,10,11,11,15,15,17,17,18,18,19,19],"right_children":[2,4,6,8,10,12,14,-1,-1,16,18,20,-1,-1,-1,22,-1,24,26,28,-1,-1,-1,-1,-1,-1,-1,-1,-1],"split_conditions":[5.2E4,3.7555668E4,6.8111E4,2.9333334E4,4.5303273E4,5.9333668E4,7.9889E4,-1.21667E3,-9.03913E2,6.666667E2,4.7711133E4,5.5555668E4,6.274889E2,1.1283894E3,1.9213489E3,4.4583332E4,-1.8856851E2,8.89E2,-2E2,-2.333E3,3.6313043E2,-4.4032028E2,-2.3360411E2,-1.9263159E2,-1.0019375E2,-9.001907E1,5.452833E1,3.591875E1,2.081034E2],"split_indices":[16,16,16,16,16,16,10,0,0,24,16,16,0,0,0,16,0,24,24,24,0,0,0,0,0,0,0,0,0],"split_type":[0,0,0,0,0,0,0,0,0,0,0,0,0,0,0,0,0,0,0,0,0,0,0,0,0,0,0,0,0],"sum_hessian":[3.12E2,1.8E2,1.32E2,8.4E1,9.6E1,7.8E1,5.4E1,4.4E1,4E1,3.4E1,6.2E1,4.5E1,3.3E1,4.5E1,9E0,2.6E1,8E0,3.5E1,2.7E1,2.6E1,1.9E1,2.1E1,5E0,3E1,5E0,1.3E1,1.4E1,5E0,2.1E1],"tree_param":{"num_deleted":"0","num_feature":"25","num_nodes":"29","size_leaf_vector":"1"}},{"base_weights":[-4.6572864E2,-1.2013307E4,1.4558308E4,-2.0375984E4,-3.8914998E3,7.338746E3,2.3488965E4,-1.1738876E3,-8.8089984E2,-6.800883E3,-1.7869962E3,4.643771E3,5.3139966E2,9.978965E2,1.7827848E3,-4.3029733E2,-2.3189392E2,-3.3047805E3,-8.372881E1,2.9116265E3,6.164835E3,-1.04871544E2,-1.7693599E2,7.308936E1,-7.564352E1,2.0955806E2,1.01754974E2,3.348958E2,1.8134834E2],"categories":[],"categories_nodes":[],"categories_segments":[],"categories_sizes":[],"default_left":[0,0,0,0,0,0,0,0,0,0,0,0,0,0,0,0,0,0,0,0,0,0,0,0,0,0,0,0,0],"id":1,"left_children":[1,3,5,7,9,11,13,-1,-1,15,17,19,-1,-1,-1,-1,-1,21,23,25,27,-1,-1,-1,-1,-1,-1,-1,-1],"loss_changes":[5.308972E10,1.1670878E10,8.402854E9,3.1351194E8,5.3277683E8,6.154785E8,1.8230927E9,0E0,0E0,1.0454797E8,1.367385E8,9.534253E7,0E0,0E0,0E0,0E0,0E0,4.86304E5,5.9639284E7,1.6144592E7,5.4704E6,0E0,0E0,0E0,0E0,0E0,0E0,0E0,0E0],"parents":[2147483647,0,0,1,1,2,2,3,3,4,4,5,5,6,6,9,9,10,10,11,11,17,17,18,18,19,19,20,20],"right_children":[2,4,6,8,10,12,14,-1,-1,16,18,20,-1,-1,-1,-1,-1,22,24,26,28,-1,-1,-1,-1,-1,-1,-1,-1],"split_conditions":[5.1666668E4,3.7555668E4,6.425911E4,2.7629889E4,4.5444332E4,5.8629555E4,7.8222555E4,-1.1738876E3,-8.8089984E2,4.3E4,4.7711133E4,5.4703777E4,5.3139966E2,9.978965E2,1.7827848E3,-4.3029733E2,-2.3189392E2,4.678791E4,4.9238E4,5.2444332E4,6.3777668E4,-1.04871544E2,-1.7693599E2,7.308936E1,-7.564352E1,2.0955806E2,1.01754974E2,3.348958E2,1.8134834E2],"split_indices":[16,16,16,16,16,16,16,0,0,16,16,16,0,0,0,0,0,15,18,11,13,0,0,0,0,0,0,0,0],"split_type":[0,0,0,0,0,0,0,0,0,0,0,0,0,0,0,0,0,0,0,0,0,0,0,0,0,0,0,0,0],"sum_hessian":[3.04E2,1.72E2,1.32E2,8.4E1,8.8E1,7.4E1,5.8E1,3.6E1,4.8E1,3.6E1,5.2E1,4.2E1,3.2E1,4.7E1,1.1E1,1.8E1,1.8E1,2.7E1,2.5E1,2.1E1,2.1E1,6E0,2.1E1,1.2E1,1.3E1,7E0,1.4E1,1.6E1,5E0],"tree_param":{"num_deleted":"0","num_feature":"25","num_nodes":"29","size_leaf_vector":"1"}},{"base_weights":[-2.5784546E2,-1.1366712E4,1.3798507E4,-1.916605E4,-3.6171602E3,7.793659E3,2.3490584E4,-1.0826714E3,-7.975393E2,-6.7036445E3,-1.8990942E3,4.468359E3,5.6283246E2,1.00253925E3,1.8466459E3,-3.8242874E2,-2.1880838E2,-3.2241362E3,-3.5648856E2,2.5606694E3,5.815776E3,-9.827422E1,-1.728452E2,5.2461914E1,-5.0179832E1,1.8519629E2,9.030681E1,3.2666122E2,1.9071988E2],"categories":[],"categories_nodes":[],"categories_segments":[],"categories_sizes":[],"default_left":[0,0,0,0,0,0,0,0,0,0,0,0,0,0,0,0,0,0,0,0,0,0,0,0,0,0,0,0,0],"id":2,"left_children":[1,3,5,7,9,11,13,-1,-1,15,17,19,-1,-1,-1,-1,-1,21,23,25,27,-1,-1,-1,-1,-1,-1,-1,-1],"loss_changes":[4.6689587E10,1.0024385E10,7.4992497E9,3.1841075E8,4.380059E8,9.0548634E8,1.571414E9,0E0,0E0,3.2507648E7,1.1331557E8,9.820768E7,0E0,0E0,0E0,0E0,0E0,1.99472E6,2.5613756E7,1.0562704E7,1.0976832E7,0E0,0E0,0E0,0E0,0E0,0E0,0E0,0E0],"parents":[2147483647,0,0,1,1,2,2,3,3,4,4,5,5,6,6,9,9,10,10,11,11,17,17,18,18,19,19,20,20],"right_children":[2,4,6,8,10,12,14,-1,-1,16,18,20,-1,-1,-1,-1,-1,22,24,26,28,-1,-1,-1,-1,-1,-1,-1,-1],"split_conditions":[5.1666668E4,3.9111E4,6.8111E4,3E4,4.5444332E4,5.8666668E4,7.9889E4,-1.0826714E3,-7.975393E2,4.3444332E4,4.7711133E4,5.4703777E4,5.6283246E2,1.00253925E3,1.8466459E3,-3.8242874E2,-2.1880838E2,4.6595285E4,4.8222E4,5.1333E4,5.2333E4,-9.827422E1,-1.728452E2,5.2461914E1,-5.0179832E1,1.8519629E2,9.030681E1,3.2666122E2,1.9071988E2],"split_indices":[16,16,16,16,16,16,10,0,0,10,16,16,0,0,0,0,0,20,11,12,15,0,0,0,0,0,0,0,0],"split_type":[0,0,0,0,0,0,0,0,0,0,0,0,0,0,0,0,0,0,0,0,0,0,0,0,0,0,0,0,0],"sum_hessian":[2.97E2,1.66E2,1.31E2,8.2E1,8.4E1,8.2E1,4.9E1,4.3E1,3.9E1,2.9E1,5.5E1,4.3E1,3.9E1,4.1E1,8E0,1.9E1,1E1,2.9E1,2.6E1,1.9E1,2.4E1,6E0,2.3E1,8E0,1.8E1,6E0,1.3E1,1.6E1,8E0],"tree_param":{"num_deleted":"0","num_feature":"25","num_nodes":"29","size_leaf_vector":"1"}},{"base_weights":[-2.3219678E2,-9.758008E3,1.4871587E4,-1.839719E4,-2.6283225E3,8.4762295E3,2.2128031E4,-1.0571241E3,-7.83449E2,-4.153178E3,1.1229963E3,4.9859116E3,5.1541815E2,9.6734485E2,1.6632338E3,-3.590848E2,-3.3046384E3,5.086764E2,1.6221642E2,5.720664E3,1.6558582E2,-8.804156E1,-1.7503712E2,5.1963654E1,-5.399911E1,1.9582195E2,3.344395E2],"categories":[],"categories_nodes":[],"categories_segments":[],"categories_sizes":[],"default_left":[0,0,0,0,0,0,0,0,0,0,0,0,0,0,0,0,0,0,0,0,0,0,0,0,0,0,0],"id":3,"left_children":[1,3,5,7,9,11,13,-1,-1,15,17,19,-1,-1,-1,-1,21,23,-1,25,-1,-1,-1,-1,-1,-1,-1],"loss_changes":[4.575374E10,1.1962601E10,5.5205663E9,3.278172E8,6.224477E8,3.7705062E8,1.1218657E9,0E0,0E0,1.741431E8,4.0051336E7,1.1807744E7,0E0,0E0,0E0,0E0,1.2606144E7,2.3038756E7,0E0,1.751264E6,0E0,0E0,0E0,0E0,0E0,0E0,0E0],"parents":[2147483647,0,0,1,1,2,2,3,3,4,4,5,5,6,6,9,9,10,10,11,11,16,16,17,17,19,19],"right_children":[2,4,6,8,10,12,14,-1,-1,16,18,20,-1,-1,-1,-1,22,24,-1,26,-1,-1,-1,-1,-1,-1,-1],"split_conditions":[5.4E4,3.7555668E4,6.9667E4,2.8667E4,4.8888668E4,5.858325E4,7.9889E4,-1.0571241E3,-7.83449E2,4.3444332E4,2.8353457E3,5.8E4,5.1541815E2,9.6734485E2,1.6632338E3,-3.590848E2,2.48851E3,1.1962236E4,1.6221642E2,4.1346514E3,1.6558582E2,-8.804156E1,-1.7503712E2,5.1963654E1,-5.399911E1,1.9582195E2,3.344395E2],"split_indices":[10,10,10,10,10,10,10,0,0,10,17,13,0,0,0,0,23,23,0,23,0,0,0,0,0,0,0],"split_type":[0,0,0,0,0,0,0,0,0,0,0,0,0,0,0,0,0,0,0,0,0,0,0,0,0,0,0],"sum_hessian":[3.16E2,1.94E2,1.22E2,8.7E1,1.07E2,6.6E1,5.6E1,4E1,4.7E1,7.6E1,3.1E1,2.4E1,4.2E1,4.7E1,9E0,1.5E1,6.1E1,2.5E1,6E0,1.5E1,9E0,8E0,5.3E1,1.9E1,6E0,7E0,8E0],"tree_param":{"num_deleted":"0","num_feature":"25","num_nodes":"27","size_leaf_vector":"1"}},{"base_weights":[1.1886636E2,-1.0089501E4,1.3803135E4,-1.787441E4,-3.4379482E3,7.8141675E3,2.1689816E4,-1.0037679E3,-7.571537E2,-6.669145E3,-1.9117162E3,4.8058496E3,1.0558522E4,9.387716E2,1.6350139E3,-3.613063E2,-1.5256029E2,-2.6826973E3,1.3638287E3,7.993104E1,5.6854126E3,4.645052E2,7.01811E2,-1.6497197E2,-3.679284E1,-1.4822048E-2,1.5913559E2,1.881049E2,3.351066E2],"categories":[],"categories_nodes":[],"categories_segments":[],"categories_sizes":[],"default_left":[0,0,0,0,0,0,0,0,0,0,0,0,0,0,0,0,0,0,0,0,0,0,0,0,0,0,0,0,0],"id":4,"left_children":[1,3,5,7,9,11,13,-1,-1,15,17,19,21,-1,-1,-1,-1,23,25,-1,27,-1,-1,-1,-1,-1,-1,-1,-1],"loss_changes":[4.5120745E10,9.51817E9,6.348673E9,2.0697702E8,4.853376E8,6.09729E8,1.279275E9,0E0,0E0,4.243571E7,1.8043554E8,1.0374957E8,5.046016E7,0E0,0E0,0E0,0E0,6.6011904E7,3.473752E7,0E0,3.540557E7,0E0,0E0,0E0,0E0,0E0,0E0,0E0,0E0],"parents":[2147483647,0,0,1,1,2,2,3,3,4,4,5,5,6,6,9,9,10,10,11,11,12,12,17,17,18,18,20,20],"right_children":[2,4,6,8,10,12,14,-1,-1,16,18,20,22,-1,-1,-1,-1,24,26,-1,28,-1,-1,-1,-1,-1,-1,-1,-1],"split_conditions":[5.2333668E4,3.5111332E4,7E4,2.8667E4,4.530957E4,5.9333668E4,7.9889E4,-1.0037679E3,-7.571537E2,4.5E4,1.1334E3,-1.666E3,1.7776666E3,9.387716E2,1.6350139E3,-3.613063E2,-1.5256029E2,4.8333E4,1.6441366E3,7.993104E1,5.5333E4,4.645052E2,7.01811E2,-1.6497197E2,-3.679284E1,-1.4822048E-2,1.5913559E2,1.881049E2,3.351066E2],"split_indices":[10,10,10,10,18,10,10,0,0,12,24,24,24,0,0,0,0,10,17,0,10,0,0,0,0,0,0,0,0],"split_type":[0,0,0,0,0,0,0,0,0,0,0,0,0,0,0,0,0,0,0,0,0,0,0,0,0,0,0,0,0],"sum_hessian":[3.21E2,1.84E2,1.37E2,8.4E1,1E2,7.9E1,5.8E1,4.3E1,4.1E1,3.1E1,6.9E1,3.9E1,4E1,4.8E1,1E1,2.6E1,5E0,5.6E1,1.3E1,9E0,3E1,3.2E1,8E0,4.2E1,1.4E1,8E0,5E0,1.2E1,1.8E1],"tree_param":{"num_deleted":"0","num_feature":"25","num_nodes":"29","size_leaf_vector":"1"}},{"base_weights":[3.831267E2,-8.880835E3,1.3684131E4,-1.6576355E4,-2.5535183E3,7.843818E3,2.1101021E4,-9.396701E2,-6.903136E2,-4.258433E3,2.5325925E2,5.2490293E3,1.0170949E4,8.9941376E2,1.5767096E3,-6.43709E3,-3.09868E3,-7.7545856E2,2.292605E3,3.7181936E3,3.4606723E2,5.5760986E2,3.9287366E2,-3.5300192E2,-1.7996104E2,-1.7319868E2,-1.1791483E2,-8.215835E1,2.5920835E1,1.6442032E2,5.6735157E1,2.0962251E2,1.2836644E2],"categories":[],"categories_nodes":[],"categories_segments":[],"categories_sizes":[],"default_left":[0,0,0,0,0,0,0,0,0,0,0,0,0,0,0,0,0,0,0,0,0,0,0,0,0,0,0,0,0,0,0,0,0],"id":5,"left_children":[1,3,5,7,9,11,13,-1,-1,15,17,19,21,-1,-1,23,25,27,29,31,-1,-1,-1,-1,-1,-1,-1,-1,-1,-1,-1,-1,-1],"loss_changes":[3.9921586E10,9.257843E9,5.595644E9,2.6869555E8,5.0832205E8,4.0553216E8,1.31635E9,0E0,0E0,1.4681587E8,8.779218E7,7.154656E7,9.05216E5,0E0,0E0,1.3481984E7,4.001504E6,3.2287624E7,1.24112E7,1.244288E6,0E0,0E0,0E0,0E0,0E0,0E0,0E0,0E0,0E0,0E0,0E0,0E0,0E0],"parents":[2147483647,0,0,1,1,2,2,3,3,4,4,5,5,6,6,9,9,10,10,11,11,12,12,15,15,16,16,17,17,18,18,19,19],"right_children":[2,4,6,8,10,12,14,-1,-1,16,18,20,22,-1,-1,24,26,28,30,32,-1,-1,-1,-1,-1,-1,-1,-1,-1,-1,-1,-1,-1],"split_conditions":[5.3333332E4,3.7555668E4,6.9444336E4,3E4,4.7259555E4,6.0000332E4,7.9889E4,-9.396701E2,-6.903136E2,4.4583332E4,2.2233333E2,3.34E2,7E0,8.9941376E2,1.5767096E3,6.666667E2,2.2233333E2,5.14002E4,3E0,3.53643E3,3.4606723E2,5.5760986E2,3.9287366E2,-3.5300192E2,-1.7996104E2,-1.7319868E2,-1.1791483E2,-8.215835E1,2.5920835E1,1.6442032E2,5.6735157E1,2.0962251E2,1.2836644E2],"split_indices":[16,10,16,16,16,16,10,0,0,16,24,24,7,0,0,24,24,10,5,19,0,0,0,0,0,0,0,0,0,0,0,0,0],"split_type":[0,0,0,0,0,0,0,0,0,0,0,0,0,0,0,0,0,0,0,0,0,0,0,0,0,0,0,0,0,0,0,0,0],"sum_hessian":[3.22E2,1.9E2,1.32E2,8.5E1,1.05E2,7.5E1,5.7E1,4.4E1,4.1E1,6.5E1,4E1,3.7E1,3.8E1,4.6E1,1.1E1,2.1E1,4.4E1,2.7E1,1.3E1,2.1E1,1.6E1,2.4E1,1.4E1,1.6E1,5E0,2.7E1,1.7E1,1.6E1,1.1E1,6E0,7E0,1.3E1,8E0],"tree_param":{"num_deleted":"0","num_feature":"25","num_nodes":"33","size_leaf_vector":"1"}},{"base_weights":[-8.091825E1,-8.435649E3,1.2246397E4,-1.5915229E4,-2.6896025E3,7.1407637E3,1.9214227E4,-9.047664E2,-6.859954E2,-4.0570566E3,-3.1922417E1,4.433661E3,9.446233E3,8.369998E2,1.521036E3,-3.2602798E2,-3.108035E3,-1.0230115E3,7.247132E2,4.83799E3,1.2321502E2,5.274633E2,3.7315594E2,-1.8433269E2,-1.25053734E2,4.87056E1,-1.0096752E2,9.724944E1,-1.21762E0,1.7806561E2,2.9301447E2],"categories":[],"categories_nodes":[],"categories_segments":[],"categories_sizes":[],"default_left":[0,0,0,0,0,0,0,0,0,0,0,0,0,0,0,0,0,0,0,0,0,0,0,0,0,0,0,0,0,0,0],"id":6,"left_children":[1,3,5,7,9,11,13,-1,-1,15,17,19,21,-1,-1,-1,23,25,27,29,-1,-1,-1,-1,-1,-1,-1,-1,-1,-1,-1],"loss_changes":[3.1103724E10,7.693236E9,4.202967E9,1.2504474E8,3.741988E8,4.0748083E8,9.048576E8,0E0,0E0,1.3871232E8,2.7737546E7,1.59472E7,4.392448E6,0E0,0E0,0E0,8.690528E6,3.3804064E7,1.924276E7,1.5673792E7,0E0,0E0,0E0,0E0,0E0,0E0,0E0,0E0,0E0,0E0,0E0],"parents":[2147483647,0,0,1,1,2,2,3,3,4,4,5,5,6,6,9,9,10,10,11,11,12,12,16,16,17,17,18,18,19,19],"right_children":[2,4,6,8,10,12,14,-1,-1,16,18,20,22,-1,-1,-1,24,26,28,30,-1,-1,-1,-1,-1,-1,-1,-1,-1,-1,-1],"split_conditions":[5.4E4,3.7555668E4,6.8111E4,2.7629889E4,4.7711133E4,5.9333668E4,7.9889E4,-9.047664E2,-6.859954E2,4.3E4,5.0000332E4,6.2714355E4,7E0,8.369998E2,1.521036E3,-3.2602798E2,4.5777668E4,4.8222E4,5.16665E4,5.6444332E4,1.2321502E2,5.274633E2,3.7315594E2,-1.8433269E2,-1.25053734E2,4.87056E1,-1.0096752E2,9.724944E1,-1.21762E0,1.7806561E2,2.9301447E2],"split_indices":[16,16,16,16,16,16,10,0,0,16,16,20,7,0,0,0,16,11,11,16,0,0,0,0,0,0,0,0,0,0,0],"split_type":[0,0,0,0,0,0,0,0,0,0,0,0,0,0,0,0,0,0,0,0,0,0,0,0,0,0,0,0,0,0,0],"sum_hessian":[3E2,1.79E2,1.21E2,7.7E1,1.02E2,7.1E1,5E1,3.5E1,4.2E1,6.7E1,3.5E1,3.4E1,3.7E1,4.3E1,7E0,1.7E1,5E1,1.5E1,2E1,2.7E1,7E0,2.1E1,1.6E1,2.3E1,2.7E1,5E0,1E1,7E0,1.3E1,1.4E1,1.3E1],"tree_param":{"num_deleted":"0","num_feature":"25","num_nodes":"31","size_leaf_vector":"1"}},{"base_weights":[-1.3361595E2,-9.038385E3,1.1546795E4,-1.5322949E4,-2.7921973E3,6.2369526E3,1.9210547E4,-8.822913E2,-6.4614056E2,-5.723209E3,-1.4204543E3,3.5692722E3,8.63551E3,8.2924023E2,1.4815239E3,-3.333651E2,-4.0483787E3,-1.2800099E2,-2.7237726E2,1.9923882E3,4.603216E3,3.442042E2,4.9295908E2,-2.4369592E2,-1.3222495E2,6.0202435E1,-4.8332577E1,1.3428276E2,7.91224E0,2.624538E2,8.953948E1],"categories":[],"categories_nodes":[],"categories_segments":[],"categories_sizes":[],"default_left":[0,0,0,0,0,0,0,0,0,0,0,0,0,0,0,0,0,0,0,0,0,0,0,0,0,0,0,0,0,0,0],"id":7,"left_children":[1,3,5,7,9,11,13,-1,-1,15,17,19,21,-1,-1,-1,23,-1,25,27,29,-1,-1,-1,-1,-1,-1,-1,-1,-1,-1],"loss_changes":[3.3179974E10,7.0622925E9,5.4958633E9,2.7373568E8,3.6176506E8,5.0025984E8,1.0407465E9,0E0,0E0,1.8862912E7,8.30345E7,5.767536E7,2.4285184E7,0E0,0E0,0E0,2.177376E6,0E0,3.4990364E7,2.2462928E7,3.419443E7,0E0,0E0,0E0,0E0,0E0,0E0,0E0,0E0,0E0,0E0],"parents":[2147483647,0,0,1,1,2,2,3,3,4,4,5,5,6,6,9,9,10,10,11,11,12,12,16,16,18,18,19,19,20,20],"right_children":[2,4,6,8,10,12,14,-1,-1,16,18,20,22,-1,-1,-1,24,-1,26,28,30,-1,-1,-1,-1,-1,-1,-1,-1,-1,-1],"split_conditions":[5.2333332E4,3.7555668E4,6.9444336E4,2.7629889E4,4.475E4,5.8666668E4,9.314822E4,-8.822913E2,-6.4614056E2,4.2518777E4,4.7259555E4,5.4703777E4,6.2370445E4,8.2924023E2,1.4815239E3,-3.333651E2,2.2E1,-1.2800099E2,4.8E4,5.5E4,5.9333E4,3.442042E2,4.9295908E2,-2.4369592E2,-1.3222495E2,6.0202435E1,-4.8332577E1,1.3428276E2,7.91224E0,2.624538E2,8.953948E1],"split_indices":[16,16,16,16,16,16,16,0,0,16,16,16,16,0,0,0,2,0,11,11,11,0,0,0,0,0,0,0,0,0,0],"split_type":[0,0,0,0,0,0,0,0,0,0,0,0,0,0,0,0,0,0,0,0,0,0,0,0,0,0,0,0,0,0,0],"sum_hessian":[3.17E2,1.8E2,1.37E2,8.9E1,9.1E1,8.2E1,5.5E1,4.2E1,4.7E1,2.8E1,6.3E1,4E1,4.2E1,4.6E1,9E0,1.6E1,1.2E1,3.1E1,3.2E1,1.7E1,2.3E1,2E1,2.2E1,6E0,6E0,1E1,2.2E1,1.2E1,5E0,1.8E1,5E0],"tree_param":{"num_deleted":"0","num_feature":"25","num_nodes":"31","size_leaf_vector":"1"}},{"base_weights":[-1.5765704E2,-8.563661E3,1.0230889E4,-1.4406739E4,-3.1401543E3,5.158399E3,1.7747508E4,-8.281136E2,-6.201652E2,-3.0178278E2,-2.072034E3,2.4343213E3,7.016567E3,7.562653E2,1.4148553E3,-2.5249695E3,8.2030205E1,5.2489734E2,3.4907393E3,1.4433281E2,7.7344863E3,-1.4009172E2,-4.163877E1,-3.014746E1,7.230755E1,1.8934622E2,1.0101973E2,3.4068268E2,5.3981604E2],"categories":[],"categories_nodes":[],"categories_segments":[],"categories_sizes":[],"default_left":[0,0,0,0,0,0,0,0,0,0,0,0,0,0,0,0,0,0,0,0,0,0,0,0,0,0,0,0,0],"id":8,"left_children":[1,3,5,7,9,11,13,-1,-1,-1,15,17,19,-1,-1,21,-1,23,25,-1,27,-1,-1,-1,-1,-1,-1,-1,-1],"loss_changes":[2.7333374E10,5.4371236E9,5.2463667E9,1.5300608E8,2.6893357E8,4.131717E8,1.1211387E9,0E0,0E0,0E0,1.184903E8,7.078515E7,1.2592026E8,0E0,0E0,2.6245728E7,0E0,1.5418413E7,2.36528E6,0E0,4.4854016E7,0E0,0E0,0E0,0E0,0E0,0E0,0E0,0E0],"parents":[2147483647,0,0,1,1,2,2,3,3,4,4,5,5,6,6,10,10,11,11,12,12,15,15,17,17,18,18,20,20],"right_children":[2,4,6,8,10,12,14,-1,-1,-1,16,18,20,-1,-1,22,-1,24,26,-1,28,-1,-1,-1,-1,-1,-1,-1,-1],"split_conditions":[5.0000332E4,3.5111332E4,6.7333E4,2.8E4,4.3444332E4,5.6444332E4,9.2333E4,-8.281136E2,-6.201652E2,-3.0178278E2,2.333E3,-1.4446666E3,-2.666E3,7.562653E2,1.4148553E3,4.8667E4,8.2030205E1,5.3333E4,5E0,1.4433281E2,2.3333333E3,-1.4009172E2,-4.163877E1,-3.014746E1,7.230755E1,1.8934622E2,1.0101973E2,3.4068268E2,5.3981604E2],"split_indices":[10,10,10,10,10,10,10,0,0,0,24,24,24,0,0,10,0,10,5,0,24,0,0,0,0,0,0,0,0],"split_type":[0,0,0,0,0,0,0,0,0,0,0,0,0,0,0,0,0,0,0,0,0,0,0,0,0,0,0,0,0],"sum_hessian":[3.11E2,1.72E2,1.39E2,8.2E1,9E1,8.4E1,5.5E1,3.6E1,4.6E1,2.3E1,6.7E1,3.5E1,4.9E1,4.6E1,9E0,6E1,7E0,1.3E1,2.2E1,8E0,4.1E1,5.1E1,9E0,6E0,7E0,1.7E1,5E0,3.4E1,7E0],"tree_param":{"num_deleted":"0","num_feature":"25","num_nodes":"29","size_leaf_vector":"1"}},{"base_weights":[3.1650402E1,-7.5108286E3,9.961449E3,-1.3409783E4,-2.3702021E3,5.374358E3,1.6664201E4,-7.169755E2,-4.4236874E2,-4.349509E3,-1.17013E3,3.2170366E3,7.6669854E3,7.323609E2,1.2784937E3,-2.7881406E2,-3.3603303E3,-1.7984243E3,6.3575E2,7.3452435E2,4.0975103E3,2.2260379E2,7.999056E3,-1.8978813E2,-7.46989E1,-1.1562079E2,-1.3813041E1,-4.0573467E1,7.494561E1,-9.312468E0,6.666445E1,1.5116164E2,2.4653789E2,3.3911182E2,4.8830542E2],"categories":[],"categories_nodes":[],"categories_segments":[],"categories_sizes":[],"default_left":[0,0,0,0,0,0,0,0,0,0,0,0,0,0,0,0,0,0,0,0,0,0,0,0,0,0,0,0,0,0,0,0,0,0,0],"id":9,"left_children":[1,3,5,7,9,11,13,-1,-1,15,17,19,21,-1,-1,-1,23,25,27,29,31,-1,33,-1,-1,-1,-1,-1,-1,-1,-1,-1,-1,-1,-1],"loss_changes":[2.411621E10,5.517567E9,4.184154E9,2.3368602E8,2.3006618E8,3.907932E8,6.313779E8,0E0,0E0,2.616128E7,7.2624664E7,9.535072E7,7.090688E6,0E0,0E0,0E0,1.302064E7,3.613299E7,2.2452468E7,7.415573E6,1.463264E7,0E0,9.020416E6,0E0,0E0,0E0,0E0,0E0,0E0,0E0,0E0,0E0,0E0,0E0,0E0],"parents":[2147483647,0,0,1,1,2,2,3,3,4,4,5,5,6,6,9,9,10,10,11,11,12,12,16,16,17,17,18,18,19,19,20,20,22,22],"right_children":[2,4,6,8,10,12,14,-1,-1,16,18,20,22,-1,-1,-1,24,26,28,30,32,-1,34,-1,-1,-1,-1,-1,-1,-1,-1,-1,-1,-1,-1],"split_conditions":[5.2E4,3.9777668E4,6.9444336E4,3.2148445E4,4.5777668E4,5.8666668E4,8.8555664E4,-7.169755E2,-4.4236874E2,4.3E4,8.89E2,-1.4446666E3,-4.333E3,7.323609E2,1.2784937E3,-2.7881406E2,8.89E2,4.9333E4,4.7889E4,5.3333332E4,5.5555668E4,2.2260379E2,1.9915955E3,-1.8978813E2,-7.46989E1,-1.1562079E2,-1.3813041E1,-4.0573467E1,7.494561E1,-9.312468E0,6.666445E1,1.5116164E2,2.4653789E2,3.3911182E2,4.8830542E2],"split_indices":[16,16,16,16,16,16,16,0,0,16,24,24,24,0,0,0,24,16,16,16,16,0,17,0,0,0,0,0,0,0,0,0,0,0,0],"split_type":[0,0,0,0,0,0,0,0,0,0,0,0,0,0,0,0,0,0,0,0,0,0,0,0,0,0,0,0,0,0,0,0,0,0,0],"sum_hessian":[3.2E2,1.82E2,1.38E2,8.4E1,9.8E1,8.3E1,5.5E1,6.8E1,1.6E1,3.6E1,6.2E1,4.4E1,3.9E1,4.7E1,8E0,1.4E1,2.2E1,4.6E1,1.6E1,1.2E1,3.2E1,5E0,3.4E1,1.7E1,5E0,3.4E1,1.2E1,6E0,1E1,5E0,7E0,1.6E1,1.6E1,2.3E1,1.1E1],"tree_param":{"num_deleted":"0","num_feature":"25","num_nodes":"35","size_leaf_vector":"1"}},{"base_weights":[1.4930873E2,-7.5692734E3,9.599618E3,-1.2974705E4,-2.2578315E3,4.773737E3,1.5449961E4,-7.438181E2,-5.297206E2,-3.4879717E3,-5.7145E2,2.0709644E3,6.2135376E3,1.3081605E4,1.3051254E3,-2.5617282E2,-2.7695042E3,-1.0317662E3,8.730036E1,-9.378199E0,2.7664976E3,1.3954668E2,6.8501855E3,5.6389954E2,7.678187E2,-1.6730882E2,-9.1319405E1,-7.098102E1,2.0310621E1,1.12267235E2,1.7314954E2,3.087985E2,4.55608E2],"categories":[],"categories_nodes":[],"categories_segments":[],"categories_sizes":[],"default_left":[0,0,0,0,0,0,0,0,0,0,0,0,0,0,0,0,0,0,0,0,0,0,0,0,0,0,0,0,0,0,0,0,0],"id":10,"left_children":[1,3,5,7,9,11,13,-1,-1,15,17,19,21,23,-1,-1,25,27,-1,-1,29,-1,31,-1,-1,-1,-1,-1,-1,-1,-1,-1,-1],"loss_changes":[2.3852077E10,5.1386194E9,4.076505E9,2.452521E8,1.8885952E8,3.062313E8,1.3236531E9,0E0,0E0,4.8087744E7,4.4471996E7,4.7645336E7,9.636813E7,5.656781E7,0E0,0E0,1.5099488E7,1.9539356E7,0E0,0E0,5.72928E5,0E0,1.0826368E7,0E0,0E0,0E0,0E0,0E0,0E0,0E0,0E0,0E0,0E0],"parents":[2147483647,0,0,1,1,2,2,3,3,4,4,5,5,6,6,9,9,10,10,11,11,12,12,13,13,16,16,17,17,20,20,22,22],"right_children":[2,4,6,8,10,12,14,-1,-1,16,18,20,22,24,-1,-1,26,28,-1,-1,30,-1,32,-1,-1,-1,-1,-1,-1,-1,-1,-1,-1],"split_conditions":[5.2E4,3.9333E4,6.4704E4,2.9333334E4,4.625E4,5.6444332E4,7.9889E4,-7.438181E2,-5.297206E2,4.3E4,3.7906416E3,-2.333E3,-1.667E3,7.2977664E4,1.3051254E3,-2.5617282E2,2.2233333E2,8.89E2,8.730036E1,-9.378199E0,1.8E1,1.3954668E2,3.2223333E3,5.6389954E2,7.678187E2,-1.6730882E2,-9.1319405E1,-7.098102E1,2.0310621E1,1.12267235E2,1.7314954E2,3.087985E2,4.55608E2],"split_indices":[16,10,16,16,16,16,10,0,0,16,17,24,24,16,0,0,24,24,0,0,2,0,24,0,0,0,0,0,0,0,0,0,0],"split_type":[0,0,0,0,0,0,0,0,0,0,0,0,0,0,0,0,0,0,0,0,0,0,0,0,0,0,0,0,0,0,0,0,0],"sum_hessian":[3.25E2,1.79E2,1.46E2,8.8E1,9.1E1,8.1E1,6.5E1,4.6E1,4.2E1,5.2E1,3.9E1,2.9E1,5.2E1,5.5E1,1E1,1.4E1,3.8E1,3.3E1,6E0,7E0,2.2E1,9E0,4.3E1,3.4E1,2.1E1,2.2E1,1.6E1,2.6E1,7E0,1.5E1,7E0,3.6E1,7E0],"tree_param":{"num_deleted":"0","num_feature":"25","num_nodes":"33","size_leaf_vector":"1"}},{"base_weights":[6.4983955E1,-6.829723E3,1.0378018E4,-1.2503168E4,-2.1092012E3,5.705188E3,1.519175E4,-7.223579E2,-5.2918646E2,-3.4391309E3,4.5892923E2,3.689969E3,7.79893E3,6.5151166E2,1.171963E3,-4.965805E3,-2.254874E3,-3.859334E2,1.7537899E3,2.7073757E3,2.6328876E2,3.3172012E2,5.086041E2,-2.756961E2,-1.5980057E2,-1.289728E2,-8.135359E1,-7.2580666E1,1.6335659E1,2.697103E1,1.1842519E2,6.918603E1,1.5465765E2],"categories":[],"categories_nodes":[],"categories_segments":[],"categories_sizes":[],"default_left":[0,0,0,0,0,0,0,0,0,0,0,0,0,0,0,0,0,0,0,0,0,0,0,0,0,0,0,0,0,0,0,0,0],"id":11,"left_children":[1,3,5,7,9,11,13,-1,-1,15,17,19,21,-1,-1,23,25,27,29,31,-1,-1,-1,-1,-1,-1,-1,-1,-1,-1,-1,-1,-1],"loss_changes":[2.1473587E10,4.821102E9,2.6350715E9,1.5306752E8,3.431216E8,2.3704102E8,7.4638234E8,0E0,0E0,1.0812909E8,3.8966124E7,3.838835E7,1.5422336E7,0E0,0E0,9.53888E6,3.750176E6,1.7182232E7,9.17324E6,7.464576E6,0E0,0E0,0E0,0E0,0E0,0E0,0E0,0E0,0E0,0E0,0E0,0E0,0E0],"parents":[2147483647,0,0,1,1,2,2,3,3,4,4,5,5,6,6,9,9,10,10,11,11,12,12,15,15,16,16,17,17,18,18,19,19],"right_children":[2,4,6,8,10,12,14,-1,-1,16,18,20,22,-1,-1,24,26,28,30,32,-1,-1,-1,-1,-1,-1,-1,-1,-1,-1,-1,-1,-1],"split_conditions":[5.4222332E4,3.5111332E4,6.8111E4,2.7629889E4,4.7711133E4,6.0185332E4,7.9889E4,-7.223579E2,-5.2918646E2,4.4583332E4,2.2233333E2,3.34E2,1.7776666E3,6.5151166E2,1.171963E3,6.666667E2,2.2233333E2,5.0296555E4,2.2610652E3,-2.334E3,2.6328876E2,3.3172012E2,5.086041E2,-2.756961E2,-1.5980057E2,-1.289728E2,-8.135359E1,-7.2580666E1,1.6335659E1,2.697103E1,1.1842519E2,6.918603E1,1.5465765E2],"split_indices":[16,10,16,16,16,16,10,0,0,16,24,24,24,0,0,24,24,16,19,24,0,0,0,0,0,0,0,0,0,0,0,0,0],"split_type":[0,0,0,0,0,0,0,0,0,0,0,0,0,0,0,0,0,0,0,0,0,0,0,0,0,0,0,0,0,0,0,0,0],"sum_hessian":[3E2,1.8E2,1.2E2,8.1E1,9.9E1,6.2E1,5.8E1,3.7E1,4.4E1,6.5E1,3.4E1,3.3E1,2.9E1,4.8E1,1E1,2.7E1,3.8E1,2.1E1,1.3E1,2.2E1,1.1E1,2.2E1,7E0,1.9E1,8E0,2.3E1,1.5E1,8E0,1.3E1,5E0,8E0,6E0,1.6E1],"tree_param":{"num_deleted":"0","num_feature":"25","num_nodes":"33","size_leaf_vector":"1"}},{"base_weights":[2.333102E2,-7.1889785E3,8.145596E3,-1.18503E4,-2.4389043E3,3.8797515E3,1.3729948E4,-7.021091E2,-5.213689E2,-2.4700793E2,-1.7472086E3,1.4926094E3,5.31092E3,5.6403046E2,2.1142371E4,-2.0439899E3,4.4743752E0,1.937889E3,5.1477246E2,5.5822373E3,1.3458762E2,1.1902451E3,6.590546E2,-4.576373E1,-1.0805651E2,6.611558E1,1.4634041E2,-2.3125223E1,7.845667E1,1.9235666E2,3.0583932E2],"categories":[],"categories_nodes":[],"categories_segments":[],"categories_sizes":[],"default_left":[0,0,0,0,0,0,0,0,0,0,0,0,0,0,0,0,0,0,0,0,0,0,0,0,0,0,0,0,0,0,0],"id":12,"left_children":[1,3,5,7,9,11,13,-1,-1,-1,15,17,19,-1,21,23,-1,25,27,29,-1,-1,-1,-1,-1,-1,-1,-1,-1,-1,-1],"loss_changes":[1.832274E10,3.5358996E9,3.54385E9,1.0620518E8,1.315072E8,2.8929984E8,9.41611E8,0E0,0E0,0E0,3.561421E7,1.38064E7,2.334784E7,0E0,4.182528E6,5.426208E6,0E0,1.0131248E7,1.3090564E7,2.0987776E7,0E0,0E0,0E0,0E0,0E0,0E0,0E0,0E0,0E0,0E0,0E0],"parents":[2147483647,0,0,1,1,2,2,3,3,4,4,5,5,6,6,10,10,11,11,12,12,14,14,15,15,17,17,18,18,19,19],"right_children":[2,4,6,8,10,12,14,-1,-1,-1,16,18,20,-1,22,24,-1,26,28,30,-1,-1,-1,-1,-1,-1,-1,-1,-1,-1,-1],"split_conditions":[5E4,3.5111332E4,6.4333E4,2.6111E4,4.3444332E4,5.5333E4,7.7667E4,-7.021091E2,-5.213689E2,-2.4700793E2,4.8888668E4,6.792034E3,5.927687E3,5.6403046E2,5.9E1,4.4333E4,4.4743752E0,3.0114026E3,7E0,5.7888668E4,1.3458762E2,1.1902451E3,6.590546E2,-4.576373E1,-1.0805651E2,6.611558E1,1.4634041E2,-2.3125223E1,7.845667E1,1.9235666E2,3.0583932E2],"split_indices":[10,10,10,10,10,10,10,0,0,0,10,23,19,0,6,14,0,19,3,10,0,0,0,0,0,0,0,0,0,0,0],"split_type":[0,0,0,0,0,0,0,0,0,0,0,0,0,0,0,0,0,0,0,0,0,0,0,0,0,0,0,0,0,0,0],"sum_hessian":[3.1E2,1.6E2,1.5E2,8E1,8E1,8.6E1,6.4E1,2.8E1,5.2E1,1.6E1,6.4E1,3.3E1,5.3E1,5E1,1.4E1,5.5E1,9E0,2.2E1,1.1E1,4.7E1,6E0,9E0,5E0,6E0,4.9E1,1.5E1,7E0,6E0,5E0,1.3E1,3.4E1],"tree_param":{"num_deleted":"0","num_feature":"25","num_nodes":"31","size_leaf_vector":"1"}},{"base_weights":[-1.1733765E2,-6.346725E3,8.382581E3,-1.1609911E4,-2.2306042E3,4.186144E3,1.3952585E4,-6.842703E2,-4.9969748E2,-4.2545273E3,-1.0753451E3,2.6589465E3,6.155223E3,1.1894957E4,1.1011208E3,-2.6833713E2,-2.9769275E3,-1.6180157E3,6.8770996E2,7.6428815E2,3.3455593E3,5.3427725E3,4.3926904E2,4.9490707E2,6.811693E2,-1.8482205E2,-6.077065E1,-9.9123245E1,-2.141202E1,-3.1313345E1,6.7095276E1,1.7311491E1,4.9114796E1,1.0211492E2,1.9654839E2,1.7123026E2,2.863872E2],"categories":[],"categories_nodes":[],"categories_segments":[],"categories_sizes":[],"default_left":[0,0,0,0,0,0,0,0,0,0,0,0,0,0,0,0,0,0,0,0,0,0,0,0,0,0,0,0,0,0,0,0,0,0,0,0,0],"id":13,"left_children":[1,3,5,7,9,11,13,-1,-1,15,17,19,21,23,-1,-1,25,27,29,31,33,35,-1,-1,-1,-1,-1,-1,-1,-1,-1,-1,-1,-1,-1,-1,-1],"loss_changes":[1.6149786E10,3.7869507E9,2.9568604E9,1.2148019E8,2.2924048E8,2.0917146E8,6.513029E8,0E0,0E0,3.517837E7,6.3302016E7,5.4682464E7,2.1441664E7,2.3916032E7,0E0,0E0,1.9588512E7,2.0831664E7,1.4593958E7,8.44719E5,1.6385856E7,3.22624E5,0E0,0E0,0E0,0E0,0E0,0E0,0E0,0E0,0E0,0E0,0E0,0E0,0E0,0E0,0E0],"parents":[2147483647,0,0,1,1,2,2,3,3,4,4,5,5,6,6,9,9,10,10,11,11,12,12,13,13,16,16,17,17,18,18,19,19,20,20,21,21],"right_children":[2,4,6,8,10,12,14,-1,-1,16,18,20,22,24,-1,-1,26,28,30,32,34,36,-1,-1,-1,-1,-1,-1,-1,-1,-1,-1,-1,-1,-1,-1,-1],"split_conditions":[5.2E4,3.4E4,6.7333E4,2.6E4,4.475E4,5.8666668E4,7.9889E4,-6.842703E2,-4.9969748E2,4.1555332E4,1.1334E3,-1.4446666E3,1.7776666E3,7.32E4,1.1011208E3,-2.6833713E2,8.89E2,4.8333E4,4.7889E4,5.4222332E4,5.553333E2,6.0185332E4,4.3926904E2,4.9490707E2,6.811693E2,-1.8482205E2,-6.077065E1,-9.9123245E1,-2.141202E1,-3.1313345E1,6.7095276E1,1.7311491E1,4.9114796E1,1.0211492E2,1.9654839E2,1.7123026E2,2.863872E2],"split_indices":[16,10,10,10,16,16,10,0,0,16,24,24,24,16,0,0,24,10,16,10,17,16,0,0,0,0,0,0,0,0,0,0,0,0,0,0,0],"split_type":[0,0,0,0,0,0,0,0,0,0,0,0,0,0,0,0,0,0,0,0,0,0,0,0,0,0,0,0,0,0,0,0,0,0,0,0,0],"sum_hessian":[3.03E2,1.75E2,1.28E2,7.6E1,9.9E1,7.4E1,5.4E1,3E1,4.6E1,3.5E1,6.4E1,4.3E1,3.1E1,4.5E1,9E0,1.7E1,1.8E1,4.9E1,1.5E1,1.2E1,3.1E1,2.6E1,5E0,2.4E1,2.1E1,1.2E1,6E0,3.7E1,1.2E1,5E0,1E1,5E0,7E0,1.1E1,2E1,6E0,2E1],"tree_param":{"num_deleted":"0","num_feature":"25","num_nodes":"37","size_leaf_vector":"1"}},{"base_weights":[-1.8273976E2,-5.865344E3,8.990786E3,-1.0849853E4,-1.84015E3,6.23989E3,1.64853E4,-6.3435596E2,-4.5286377E2,-2.4126622E2,-1.0168087E3,4.187962E3,8.667591E3,6.58165E2,1.0513319E3,-2.0041825E3,1.7920796E2,1.9170596E3,4.8112827E3,3.0202603E2,4.823879E2,-1.18433556E2,-4.0222496E1,-1.359505E1,1.10790955E2,1.1503845E2,5.7494434E1,1.5759718E2,2.740844E2],"categories":[],"categories_nodes":[],"categories_segments":[],"categories_sizes":[],"default_left":[0,0,0,0,0,0,0,0,0,0,0,0,0,0,0,0,0,0,0,0,0,0,0,0,0,0,0,0,0],"id":14,"left_children":[1,3,5,7,9,11,13,-1,-1,-1,15,17,19,-1,-1,21,23,25,27,-1,-1,-1,-1,-1,-1,-1,-1,-1,-1],"loss_changes":[1.5535202E10,3.6717394E9,2.247429E9,1.5515136E8,2.4824883E8,3.871255E8,1.7580954E8,0E0,0E0,0E0,9.719424E7,5.872045E7,3.95712E7,0E0,0E0,1.7772528E7,3.551436E7,8.8682E5,2.388192E7,0E0,0E0,0E0,0E0,0E0,0E0,0E0,0E0,0E0,0E0],"parents":[2147483647,0,0,1,1,2,2,3,3,4,4,5,5,6,6,10,10,11,11,12,12,15,15,16,16,17,17,18,18],"right_children":[2,4,6,8,10,12,14,-1,-1,-1,16,18,20,-1,-1,22,24,26,28,-1,-1,-1,-1,-1,-1,-1,-1,-1,-1],"split_conditions":[5.4E4,3.5111332E4,7.32E4,2.7629889E4,4.3E4,6.3296445E4,7.9889E4,-6.3435596E2,-4.5286377E2,-2.4126622E2,4.7711133E4,-1.6666666E3,-1.4446666E3,6.58165E2,1.0513319E3,3.34E2,2.334E3,5.25917E3,5.69332E4,3.0202603E2,4.823879E2,-1.18433556E2,-4.0222496E1,-1.359505E1,1.10790955E2,1.1503845E2,5.7494434E1,1.5759718E2,2.740844E2],"split_indices":[16,10,16,16,16,16,10,0,0,0,16,24,24,0,0,24,24,23,16,0,0,0,0,0,0,0,0,0,0],"split_type":[0,0,0,0,0,0,0,0,0,0,0,0,0,0,0,0,0,0,0,0,0,0,0,0,0,0,0,0,0],"sum_hessian":[2.96E2,1.83E2,1.13E2,8.1E1,1.02E2,8.4E1,2.9E1,3.7E1,4.4E1,2.1E1,8.1E1,4.7E1,3.7E1,1.9E1,1E1,4.4E1,3.7E1,1.1E1,3.6E1,1.2E1,2.5E1,3.3E1,1.1E1,3.1E1,6E0,6E0,5E0,1.2E1,2.4E1],"tree_param":{"num_deleted":"0","num_feature":"25","num_nodes":"29","size_leaf_vector":"1"}},{"base_weights":[3.27668E2,-5.3047876E3,8.396796E3,-9.99528E3,-1.690809E3,4.202308E3,1.1974332E4,-5.5891364E2,-4.094356E2,-3.671566E3,-6.7627606E2,1.8309705E3,4.819253E3,4.9255566E2,8.882255E2,-2.209796E2,-2.6195625E3,-1.5763875E3,2.1761774E2,1.0596069E2,5.467217E1,3.7983833E3,2.8196603E2,-6.0276924E1,-1.5541388E2,-3.3701626E1,-8.5215614E1,2.5427786E1,-6.6091576E1,2.1698546E2,9.318881E1],"categories":[],"categories_nodes":[],"categories_segments":[],"categories_sizes":[],"default_left":[0,0,0,0,0,0,0,0,0,0,0,0,0,0,0,0,0,0,0,0,0,0,0,0,0,0,0,0,0,0,0],"id":15,"left_children":[1,3,5,7,9,11,13,-1,-1,15,17,19,21,-1,-1,-1,23,25,27,-1,-1,29,-1,-1,-1,-1,-1,-1,-1,-1,-1],"loss_changes":[1.4042836E10,3.068244E9,1.8554337E9,7.730022E7,2.065095E8,7.895526E7,6.6097766E8,0E0,0E0,1.5965024E7,5.6665336E7,6.58984E5,1.7927168E7,0E0,0E0,0E0,8.000784E6,2.8914E6,1.6796054E7,0E0,0E0,1.7045792E7,0E0,0E0,0E0,0E0,0E0,0E0,0E0,0E0,0E0],"parents":[2147483647,0,0,1,1,2,2,3,3,4,4,5,5,6,6,9,9,10,10,11,11,12,12,16,16,17,17,18,18,21,21],"right_children":[2,4,6,8,10,12,14,-1,-1,16,18,20,22,-1,-1,-1,24,26,28,-1,-1,30,-1,-1,-1,-1,-1,-1,-1,-1,-1],"split_conditions":[5.4E4,3.7555668E4,6.4704E4,3.0000334E4,4.5303273E4,5.6444332E4,7.5689E4,-5.5891364E2,-4.094356E2,4.3E4,4.7711133E4,5.5E4,6.0555668E4,4.9255566E2,8.882255E2,-2.209796E2,4.4E4,4.6595285E4,5.858325E4,1.0596069E2,5.467217E1,6.0555668E4,2.8196603E2,-6.0276924E1,-1.5541388E2,-3.3701626E1,-8.5215614E1,2.5427786E1,-6.6091576E1,2.1698546E2,9.318881E1],"split_indices":[16,16,16,16,16,16,16,0,0,16,16,11,16,0,0,0,11,20,13,0,0,11,0,0,0,0,0,0,0,0,0],"split_type":[0,0,0,0,0,0,0,0,0,0,0,0,0,0,0,0,0,0,0,0,0,0,0,0,0,0,0,0,0,0,0],"sum_hessian":[3.07E2,1.81E2,1.26E2,7.8E1,1.03E2,5.9E1,6.7E1,4.4E1,3.4E1,3.4E1,6.9E1,1.3E1,4.6E1,5.1E1,1.6E1,1.8E1,1.6E1,3.4E1,3.5E1,8E0,5E0,2.3E1,2.3E1,5E0,1.1E1,5E0,2.9E1,3E1,5E0,1.7E1,6E0],"tree_param":{"num_deleted":"0","num_feature":"25","num_nodes":"31","size_leaf_vector":"1"}},{"base_weights":[1.14962364E2,-5.6938066E3,7.397381E3,-9.764911E3,-1.9352025E3,3.8961885E3,1.2410505E4,-5.8656177E2,-8.361755E3,-3.4764463E3,-8.606114E2,2.2708396E3,5.9327915E3,5.214394E2,9.944505E2,-4.4275616E2,-2.9261905E2,-4.1165503E3,-2.0765354E3,-1.3899884E3,6.7555383E2,5.935439E2,2.862779E3,5.062227E3,4.0646738E2,-1.4388017E2,-2.5062259E2,-1.4166573E2,-6.2469215E1,-8.313325E1,-6.2766848E0,-2.5199675E1,6.934286E1,5.8668262E1,-1.3923762E1,1.0224737E2,1.8019582E2,1.5077725E2,2.695156E2],"categories":[],"categories_nodes":[],"categories_segments":[],"categories_sizes":[],"default_left":[0,0,0,0,0,0,0,0,0,0,0,0,0,0,0,0,0,0,0,0,0,0,0,0,0,0,0,0,0,0,0,0,0,0,0,0,0,0,0],"id":16,"left_children":[1,3,5,7,9,11,13,-1,15,17,19,21,23,-1,-1,-1,-1,25,27,29,31,33,35,37,-1,-1,-1,-1,-1,-1,-1,-1,-1,-1,-1,-1,-1,-1,-1],"loss_changes":[1.239427E10,2.4752753E9,2.2333957E9,1.1711283E8,1.3944195E8,2.4472243E8,5.780562E8,0E0,8.84096E6,2.2814944E7,4.322596E7,4.297944E7,2.3863808E7,0E0,0E0,0E0,0E0,1.1105536E7,4.59772E6,1.3237984E7,1.244519E7,6.899753E6,1.263232E7,1.875328E6,0E0,0E0,0E0,0E0,0E0,0E0,0E0,0E0,0E0,0E0,0E0,0E0,0E0,0E0,0E0],"parents":[2147483647,0,0,1,1,2,2,3,3,4,4,5,5,6,6,8,8,9,9,10,10,11,11,12,12,17,17,18,18,19,19,20,20,21,21,22,22,23,23],"right_children":[2,4,6,8,10,12,14,-1,16,18,20,22,24,-1,-1,-1,-1,26,28,30,32,34,36,38,-1,-1,-1,-1,-1,-1,-1,-1,-1,-1,-1,-1,-1,-1,-1],"split_conditions":[5.2E4,3.5111332E4,6.9444336E4,2.6000334E4,4.5444332E4,5.9333668E4,9.314822E4,-5.8656177E2,3.2148445E4,6.666667E2,8.89E2,-1.4446666E3,1.334E3,5.214394E2,9.944505E2,-4.4275616E2,-2.9261905E2,2.35E2,4.2000332E4,4.9333E4,4.7711133E4,5.6E4,3.34E2,6.0555668E4,4.0646738E2,-1.4388017E2,-2.5062259E2,-1.4166573E2,-6.2469215E1,-8.313325E1,-6.2766848E0,-2.5199675E1,6.934286E1,5.8668262E1,-1.3923762E1,1.0224737E2,1.8019582E2,1.5077725E2,2.695156E2],"split_indices":[16,16,16,16,16,16,16,0,16,24,24,24,24,0,0,0,0,6,16,16,16,12,24,16,0,0,0,0,0,0,0,0,0,0,0,0,0,0,0],"split_type":[0,0,0,0,0,0,0,0,0,0,0,0,0,0,0,0,0,0,0,0,0,0,0,0,0,0,0,0,0,0,0,0,0,0,0,0,0,0,0],"sum_hessian":[2.91E2,1.62E2,1.29E2,7.7E1,8.5E1,7.7E1,5.2E1,2.9E1,4.8E1,3.4E1,5.1E1,4.4E1,3.3E1,4.3E1,9E0,3.8E1,1E1,2.2E1,1.2E1,3.8E1,1.3E1,1.2E1,3.2E1,2.6E1,7E0,1.1E1,1.1E1,5E0,7E0,3.1E1,7E0,5E0,8E0,7E0,5E0,1.7E1,1.5E1,5E0,2.1E1],"tree_param":{"num_deleted":"0","num_feature":"25","num_nodes":"39","size_leaf_vector":"1"}},{"base_weights":[1.4211568E2,-5.2008223E3,7.4820703E3,-8.932931E3,-1.4950328E3,4.52341E3,1.2691405E4,-9.636081E3,-3.1005212E2,-2.6447715E3,-5.297238E2,2.9349082E3,6.8144473E3,1.0325325E4,9.070255E2,-4.944575E2,-2.7496933E2,-3.0947524E3,-1.3744183E3,-8.706103E2,7.956351E1,1.8675876E3,3.8848325E3,1.7592934E2,3.647237E2,3.0126486E2,5.438999E2,-1.9833847E2,-1.1949613E2,-3.1309116E1,-9.09709E1,-6.522364E1,1.6137598E1,1.0778426E2,2.979987E1,1.1564666E2,2.1297441E2],"categories":[],"categories_nodes":[],"categories_segments":[],"categories_sizes":[],"default_left":[0,0,0,0,0,0,0,0,0,0,0,0,0,0,0,0,0,0,0,0,0,0,0,0,0,0,0,0,0,0,0,0,0,0,0,0,0],"id":17,"left_children":[1,3,5,7,9,11,13,15,-1,17,19,21,23,25,-1,-1,-1,27,29,31,-1,33,35,-1,-1,-1,-1,-1,-1,-1,-1,-1,-1,-1,-1,-1,-1],"loss_changes":[1.1451038E10,2.3239834E9,1.8383478E9,1.0160486E8,9.404637E7,2.711456E8,3.7998643E8,1.3662208E7,0E0,1.8040256E7,3.609025E7,4.242451E7,2.4961024E7,1.2881664E7,0E0,0E0,0E0,7.7292E6,2.856292E6,2.2166732E7,0E0,7.873776E6,4.871136E6,0E0,0E0,0E0,0E0,0E0,0E0,0E0,0E0,0E0,0E0,0E0,0E0,0E0,0E0],"parents":[2147483647,0,0,1,1,2,2,3,3,4,4,5,5,6,6,7,7,9,9,10,10,11,11,12,12,13,13,17,17,18,18,19,19,21,21,22,22],"right_children":[2,4,6,8,10,12,14,16,-1,18,20,22,24,26,-1,-1,-1,28,30,32,-1,34,36,-1,-1,-1,-1,-1,-1,-1,-1,-1,-1,-1,-1,-1,-1],"split_conditions":[5.25336E4,3.996289E4,7.1222336E4,3.099975E4,4.6083332E4,6.1778E4,7.8222555E4,2E3,-3.1005212E2,6.666667E2,3.7906416E3,-1.11E2,-2.1113333E3,-2.667E3,9.070255E2,-4.944575E2,-2.7496933E2,4.550007E4,4.5303273E4,5.0000332E4,7.956351E1,2.3888828E3,5.5111332E4,1.7592934E2,3.647237E2,3.0126486E2,5.438999E2,-1.9833847E2,-1.1949613E2,-3.1309116E1,-9.09709E1,-6.522364E1,1.6137598E1,1.0778426E2,2.979987E1,1.1564666E2,2.1297441E2],"split_indices":[16,16,16,16,16,16,16,24,0,24,17,24,24,24,0,0,0,20,13,16,0,17,16,0,0,0,0,0,0,0,0,0,0,0,0,0,0],"split_type":[0,0,0,0,0,0,0,0,0,0,0,0,0,0,0,0,0,0,0,0,0,0,0,0,0,0,0,0,0,0,0,0,0,0,0,0,0],"sum_hessian":[2.9E2,1.68E2,1.22E2,8.3E1,8.5E1,7.9E1,4.3E1,6.4E1,1.9E1,3.8E1,4.7E1,4.8E1,3.1E1,3.2E1,1.1E1,5.9E1,5E0,2.7E1,1.1E1,4.1E1,6E0,2.4E1,2.4E1,5E0,2.6E1,5E0,2.7E1,1E1,1.7E1,5E0,6E0,3E1,1.1E1,1.9E1,5E0,6E0,1.8E1],"tree_param":{"num_deleted":"0","num_feature":"25","num_nodes":"37","size_leaf_vector":"1"}},{"base_weights":[-1.9712349E2,-4.836415E3,6.7633784E3,-9.019402E3,-1.7502748E3,3.487482E3,9.882411E3,-5.4803766E2,-3.9688425E2,-3.7458813E3,-8.0821564E2,2.473442E3,2.2272221E2,8.001648E3,1.2683615E4,-2.7043613E3,-2.2403079E2,-1.4866744E3,1.711239E2,2.777601E3,6.768642E1,4.1951984E2,2.1677751E2,8.43442E2,5.3472034E2,-8.198968E1,-1.5056407E2,-3.4557785E1,-7.956701E1,3.2408924E1,-2.4426521E1,9.936292E1,1.6283188E2],"categories":[],"categories_nodes":[],"categories_segments":[],"categories_sizes":[],"default_left":[0,0,0,0,0,0,0,0,0,0,0,0,0,0,0,0,0,0,0,0,0,0,0,0,0,0,0,0,0,0,0,0,0],"id":18,"left_children":[1,3,5,7,9,11,13,-1,-1,15,17,19,-1,21,23,25,-1,27,29,31,-1,-1,-1,-1,-1,-1,-1,-1,-1,-1,-1,-1,-1],"loss_changes":[1.0172335E10,2.424069E9,1.2529562E9,8.099686E7,2.0377027E8,5.075616E7,2.3568794E8,0E0,0E0,1.4666208E7,5.0751972E7,7.47872E6,0E0,2.2055936E7,1.9405056E7,6.16648E5,0E0,2.646984E6,1.038677E7,2.993296E6,0E0,0E0,0E0,0E0,0E0,0E0,0E0,0E0,0E0,0E0,0E0,0E0,0E0],"parents":[2147483647,0,0,1,1,2,2,3,3,4,4,5,5,6,6,9,9,10,10,11,11,13,13,14,14,15,15,17,17,18,18,19,19],"right_children":[2,4,6,8,10,12,14,-1,-1,16,18,20,-1,22,24,26,-1,28,30,32,-1,-1,-1,-1,-1,-1,-1,-1,-1,-1,-1,-1,-1],"split_conditions":[5.4222332E4,3.4667E4,6.4704E4,2.5222334E4,4.475E4,5.8666668E4,7.38E4,-5.4803766E2,-3.9688425E2,2.36E2,4.8000332E4,6.2857145E4,2.2272221E2,7.5E4,5.9E1,4.4316816E4,-2.2403079E2,4.5091184E4,5.166657E4,5.6444332E4,6.768642E1,4.1951984E2,2.1677751E2,8.43442E2,5.3472034E2,-8.198968E1,-1.5056407E2,-3.4557785E1,-7.956701E1,3.2408924E1,-2.4426521E1,9.936292E1,1.6283188E2],"split_indices":[16,10,16,16,16,16,16,0,0,6,16,20,0,12,6,20,0,12,18,16,0,0,0,0,0,0,0,0,0,0,0,0,0],"split_type":[0,0,0,0,0,0,0,0,0,0,0,0,0,0,0,0,0,0,0,0,0,0,0,0,0,0,0,0,0,0,0,0,0],"sum_hessian":[3.13E2,1.88E2,1.25E2,7.9E1,1.09E2,6.2E1,6.3E1,2.5E1,5.4E1,3.4E1,7.5E1,3.2E1,3E1,4E1,2.3E1,1.6E1,1.8E1,4.4E1,3.1E1,2.4E1,8E0,3.5E1,5E0,5E0,1.8E1,5E0,1.1E1,6E0,3.8E1,1.8E1,1.3E1,1.1E1,1.3E1],"tree_param":{"num_deleted":"0","num_feature":"25","num_nodes":"33","size_leaf_vector":"1"}},{"base_weights":[9.484732E1,-4.570939E3,6.7805034E3,-8.310629E3,-1.2082151E3,4.3945195E3,1.1504647E4,-5.1888306E2,-7.2419536E3,-2.0293933E3,6.506E1,2.5977397E3,6.130887E3,4.845253E2,8.5398895E2,-3.8927057E2,-2.7046802E2,-3.0985178E3,-1.559521E3,8.112362E2,-4.8929025E2,2.8683774E3,6.1327583E1,6.506949E3,1.8361238E2,-7.845908E1,-1.8024883E2,-3.9396046E1,-8.4383385E1,1.4177068E1,8.6571E1,-7.163418E1,6.49353E-1,9.329201E1,1.7885576E2,2.1948071E2,3.5762387E2],"categories":[],"categories_nodes":[],"categories_segments":[],"categories_sizes":[],"default_left":[0,0,0,0,0,0,0,0,0,0,0,0,0,0,0,0,0,0,0,0,0,0,0,0,0,0,0,0,0,0,0,0,0,0,0,0,0],"id":19,"left_children":[1,3,5,7,9,11,13,-1,15,17,19,21,23,-1,-1,-1,-1,25,27,29,31,33,-1,35,-1,-1,-1,-1,-1,-1,-1,-1,-1,-1,-1,-1,-1],"loss_changes":[9.638697E9,2.278708E9,1.3809526E9,1.1481805E8,1.0155386E8,2.523822E8,2.5927987E8,0E0,1.7641984E7,2.480656E7,1.6529005E7,1.2809952E7,1.5862912E7,0E0,0E0,0E0,0E0,7.5104E6,2.921992E6,7.763867E6,1.0917044E7,1.8904992E7,0E0,1.7808128E7,0E0,0E0,0E0,0E0,0E0,0E0,0E0,0E0,0E0,0E0,0E0,0E0,0E0],"parents":[2147483647,0,0,1,1,2,2,3,3,4,4,5,5,6,6,8,8,9,9,10,10,11,11,12,12,17,17,18,18,19,19,20,20,21,21,23,23],"right_children":[2,4,6,8,10,12,14,-1,16,18,20,22,24,-1,-1,-1,-1,26,28,30,32,34,-1,36,-1,-1,-1,-1,-1,-1,-1,-1,-1,-1,-1,-1,-1],"split_conditions":[5.4E4,3.9333E4,7.1444664E4,2.6E4,4.7711133E4,6.0889E4,9.2333E4,-5.1888306E2,3.2148445E4,4.4E4,4.9333E4,6.2857145E4,6.4044566E4,4.845253E2,8.5398895E2,-3.8927057E2,-2.7046802E2,4.0667E4,4.5333E4,5.0296555E4,4.9333E4,5.6888668E4,6.1327583E1,3.3148228E3,1.8361238E2,-7.845908E1,-1.8024883E2,-3.9396046E1,-8.4383385E1,1.4177068E1,8.6571E1,-7.163418E1,6.49353E-1,9.329201E1,1.7885576E2,2.1948071E2,3.5762387E2],"split_indices":[16,10,10,16,16,16,10,0,16,12,12,20,22,0,0,0,0,12,14,16,16,16,0,21,0,0,0,0,0,0,0,0,0,0,0,0,0],"split_type":[0,0,0,0,0,0,0,0,0,0,0,0,0,0,0,0,0,0,0,0,0,0,0,0,0,0,0,0,0,0,0,0,0,0,0,0,0],"sum_hessian":[3.07E2,1.81E2,1.26E2,8.5E1,9.6E1,8.5E1,4.1E1,2.6E1,5.9E1,5.8E1,3.8E1,4.3E1,4.2E1,3.3E1,8E0,4.3E1,1.6E1,1.6E1,4.2E1,1.6E1,2.2E1,3.5E1,8E0,3.5E1,7E0,5E0,1.1E1,7E0,3.5E1,1.1E1,5E0,7E0,1.5E1,1.6E1,1.9E1,1E1,2.5E1],"tree_param":{"num_deleted":"0","num_feature":"25","num_nodes":"37","size_leaf_vector":"1"}},{"base_weights":[2.0882489E2,-4.3207324E3,6.6039336E3,-8.22638E3,-1.5220569E3,4.839061E3,1.3545186E4,-4.8197128E2,-7.0645576E3,-3.1574797E3,-6.377773E2,2.8994863E3,6.519048E3,8.601665E2,4.8578293E2,-3.705367E2,-2.4089867E2,-3.668966E3,-1.5684708E3,-1.0736246E3,1.0900175E3,1.9468187E3,3.9746116E3,4.6213896E3,7.3686187E3,-2.0254167E2,-1.10397194E2,-1.0368737E2,-4.0089127E1,-6.969802E1,-1.4216254E1,1.6069199E1,1.0947018E2,1.08244644E2,3.7502636E1,1.1919132E2,2.1979199E2,2.561672E2,1.2981361E2,2.2948047E2,3.8792197E2],"categories":[],"categories_nodes":[],"categories_segments":[],"categories_sizes":[],"default_left":[0,0,0,0,0,0,0,0,0,0,0,0,0,0,0,0,0,0,0,0,0,0,0,0,0,0,0,0,0,0,0,0,0,0,0,0,0,0,0,0,0],"id":20,"left_children":[1,3,5,7,9,11,13,-1,15,17,19,21,23,-1,-1,-1,-1,25,27,29,31,33,35,37,39,-1,-1,-1,-1,-1,-1,-1,-1,-1,-1,-1,-1,-1,-1,-1,-1],"loss_changes":[9.153142E9,2.0096479E9,1.5392594E9,5.8313216E7,1.5561888E8,3.2649472E8,1.9709133E8,0E0,7.0144E4,2.513008E7,5.53902E7,4.449824E7,5.622963E7,0E0,0E0,0E0,0E0,6.677664E6,2.59859E6,1.4268436E7,1.1971736E7,5.944728E6,4.932992E6,7.028736E6,4.474496E6,0E0,0E0,0E0,0E0,0E0,0E0,0E0,0E0,0E0,0E0,0E0,0E0,0E0,0E0,0E0,0E0],"parents":[2147483647,0,0,1,1,2,2,3,3,4,4,5,5,6,6,8,8,9,9,10,10,11,11,12,12,17,17,18,18,19,19,20,20,21,21,22,22,23,23,24,24],"right_children":[2,4,6,8,10,12,14,-1,16,18,20,22,24,-1,-1,-1,-1,26,28,30,32,34,36,38,40,-1,-1,-1,-1,-1,-1,-1,-1,-1,-1,-1,-1,-1,-1,-1,-1],"split_conditions":[5.4E4,3.4667E4,7.3518664E4,2.6667E4,4.5303273E4,6.2370445E4,6E1,-4.8197128E2,7.5E2,6.666667E2,1.1334E3,3.34E2,-5.553333E2,8.601665E2,4.8578293E2,-3.705367E2,-2.4089867E2,4.5939547E4,3.370351E3,4.9333E4,5.0296555E4,6.68262E3,5.69332E4,3.6222095E3,2.3E1,-2.0254167E2,-1.10397194E2,-1.0368737E2,-4.0089127E1,-6.969802E1,-1.4216254E1,1.6069199E1,1.0947018E2,1.08244644E2,3.7502636E1,1.1919132E2,2.1979199E2,2.561672E2,1.2981361E2,2.2948047E2,3.8792197E2],"split_indices":[16,10,16,16,16,16,6,0,24,24,24,24,24,0,0,0,0,13,21,16,16,21,16,17,6,0,0,0,0,0,0,0,0,0,0,0,0,0,0,0,0],"split_type":[0,0,0,0,0,0,0,0,0,0,0,0,0,0,0,0,0,0,0,0,0,0,0,0,0,0,0,0,0,0,0,0,0,0,0,0,0,0,0,0,0],"sum_hessian":[3.14E2,1.84E2,1.3E2,7.6E1,1.08E2,1.05E2,2.5E1,3.1E1,4.5E1,3.7E1,7.1E1,5E1,5.5E1,1.1E1,1.4E1,3.7E1,8E0,2.7E1,1E1,5.7E1,1.4E1,2.8E1,2.2E1,1.9E1,3.6E1,2E1,7E0,5E0,5E0,4E1,1.7E1,9E0,5E0,2.3E1,5E0,6E0,1.6E1,1.4E1,5E0,6E0,3E1],"tree_param":{"num_deleted":"0","num_feature":"25","num_nodes":"41","size_leaf_vector":"1"}},{"base_weights":[1.0723797E2,-4.964669E3,5.145731E3,-7.6347056E3,-2.0504338E3,2.376548E3,8.653707E3,-4.5917355E2,-3.312075E2,-1.7310799E2,-1.5096312E3,1.0296808E3,3.2465608E3,7.414866E3,7.975561E2,-1.7142686E3,-9.3932996E2,9.57064E1,7.501891E2,3.4124336E3,8.3452484E1,6.268641E3,4.4365048E2,-3.2679333E1,-9.235603E1,-6.877876E1,4.4857745E0,8.593724E0,6.3924557E1,1.1758396E2,1.8744246E2,3.2771606E2,1.8501205E2],"categories":[],"categories_nodes":[],"categories_segments":[],"categories_sizes":[],"default_left":[0,0,0,0,0,0,0,0,0,0,0,0,0,0,0,0,0,0,0,0,0,0,0,0,0,0,0,0,0,0,0,0,0],"id":21,"left_children":[1,3,5,7,9,11,13,-1,-1,-1,15,17,19,21,-1,23,25,-1,27,29,-1,31,-1,-1,-1,-1,-1,-1,-1,-1,-1,-1,-1],"loss_changes":[7.8964147E9,1.182637E9,1.4851395E9,6.437683E7,5.203328E7,9.977472E7,4.9646797E8,0E0,0E0,0E0,4.925216E6,7.463084E6,8.1728E6,4.465971E7,0E0,4.429296E6,7.754987E6,0E0,8.640479E6,7.956032E6,0E0,2.895744E6,0E0,0E0,0E0,0E0,0E0,0E0,0E0,0E0,0E0,0E0,0E0],"parents":[2147483647,0,0,1,1,2,2,3,3,4,4,5,5,6,6,10,10,11,11,12,12,13,13,15,15,16,16,18,18,19,19,21,21],"right_children":[2,4,6,8,10,12,14,-1,-1,-1,16,18,20,22,-1,24,26,-1,28,30,-1,32,-1,-1,-1,-1,-1,-1,-1,-1,-1,-1,-1],"split_conditions":[4.8888668E4,3.4667E4,6.4333E4,2.6E4,4.2333E4,5.574975E4,9.2333E4,-4.5917355E2,-3.312075E2,-1.7310799E2,5E0,4.5667E4,7.0556987E3,7.32E4,7.975561E2,2.48851E3,1.1628976E3,9.57064E1,5.2333668E4,5.858325E4,8.3452484E1,7.5E4,4.4365048E2,-3.2679333E1,-9.235603E1,-6.877876E1,4.4857745E0,8.593724E0,6.3924557E1,1.1758396E2,1.8744246E2,3.2771606E2,1.8501205E2],"split_indices":[10,10,10,10,10,10,10,0,0,0,5,15,19,10,0,23,17,0,10,10,0,12,0,0,0,0,0,0,0,0,0,0,0],"split_type":[0,0,0,0,0,0,0,0,0,0,0,0,0,0,0,0,0,0,0,0,0,0,0,0,0,0,0,0,0,0,0,0,0],"sum_hessian":[3.07E2,1.53E2,1.54E2,7.9E1,7.4E1,8.7E1,6.7E1,2.8E1,5.1E1,1.9E1,5.5E1,3.5E1,5.2E1,5.9E1,8E0,3.9E1,1.6E1,7E0,2.8E1,4.6E1,6E0,3.6E1,2.3E1,5E0,3.4E1,1.1E1,5E0,1.4E1,1.4E1,1.3E1,3.3E1,3.1E1,5E0],"tree_param":{"num_deleted":"0","num_feature":"25","num_nodes":"33","size_leaf_vector":"1"}},{"base_weights":[1.9725194E2,-3.6681477E3,6.009461E3,-7.0854116E3,-1.0544756E3,4.2782793E3,1.2303551E4,-4.1338876E2,-5.329008E3,-1.7129496E3,-1.03019905E1,2.6854678E3,6.338088E3,7.7811884E2,4.4381265E2,-1.5317705E2,-2.8022336E2,-2.5550645E3,-1.2226802E3,-4.625562E2,1.1588799E3,3.638088E1,3.037406E3,1.3352122E2,6.7615444E3,-1.7591461E2,-1.0460201E2,-1.0812936E2,-4.551379E1,-4.690092E1,5.356901E0,2.3366732E1,7.930394E1,1.0874349E2,1.8138585E2,2.0933582E2,3.5624216E2],"categories":[],"categories_nodes":[],"categories_segments":[],"categories_sizes":[],"default_left":[0,0,0,0,0,0,0,0,0,0,0,0,0,0,0,0,0,0,0,0,0,0,0,0,0,0,0,0,0,0,0,0,0,0,0,0,0],"id":22,"left_children":[1,3,5,7,9,11,13,-1,15,17,19,21,23,-1,-1,-1,-1,25,27,29,31,-1,33,-1,35,-1,-1,-1,-1,-1,-1,-1,-1,-1,-1,-1,-1],"loss_changes":[6.919262E9,1.6448758E9,1.2875955E9,1.220777E8,7.286385E7,3.045061E8,1.5225805E8,0E0,4.672E6,2.371208E7,2.2744278E7,3.7065344E7,4.717376E7,0E0,0E0,0E0,0E0,2.89752E6,1.0657588E7,8.497406E6,2.803897E6,0E0,1.655008E7,0E0,4.781312E6,0E0,0E0,0E0,0E0,0E0,0E0,0E0,0E0,0E0,0E0,0E0,0E0],"parents":[2147483647,0,0,1,1,2,2,3,3,4,4,5,5,6,6,8,8,9,9,10,10,11,11,12,12,17,17,18,18,19,19,20,20,22,22,24,24],"right_children":[2,4,6,8,10,12,14,-1,16,18,20,22,24,-1,-1,-1,-1,26,28,30,32,-1,34,-1,36,-1,-1,-1,-1,-1,-1,-1,-1,-1,-1,-1,-1],"split_conditions":[5.4E4,3.996289E4,7.3518664E4,3.0000334E4,4.8000332E4,6.3296445E4,6E1,-4.1338876E2,3E4,-5.334E2,2.2233333E2,-1.666E3,-4.333E3,7.7811884E2,4.4381265E2,-1.5317705E2,-2.8022336E2,-2.3335E3,4.2333E4,5.14002E4,2.2610652E3,3.638088E1,5.7555668E4,1.3352122E2,8E0,-1.7591461E2,-1.0460201E2,-1.0812936E2,-4.551379E1,-4.690092E1,5.356901E0,2.3366732E1,7.930394E1,1.0874349E2,1.8138585E2,2.0933582E2,3.5624216E2],"split_indices":[16,16,16,16,16,16,6,0,12,24,24,24,24,0,0,0,0,24,10,10,19,0,16,0,6,0,0,0,0,0,0,0,0,0,0,0,0],"split_type":[0,0,0,0,0,0,0,0,0,0,0,0,0,0,0,0,0,0,0,0,0,0,0,0,0,0,0,0,0,0,0,0,0,0,0,0,0],"sum_hessian":[3.06E2,1.84E2,1.22E2,7.9E1,1.05E2,9.7E1,2.5E1,4.5E1,3.4E1,6.4E1,4.1E1,5.6E1,4.1E1,1.1E1,1.4E1,5E0,2.9E1,2.2E1,4.2E1,3E1,1.1E1,9E0,4.7E1,5E0,3.6E1,5E0,1.7E1,9E0,3.3E1,1.6E1,1.4E1,5E0,6E0,2.1E1,2.6E1,6E0,3E1],"tree_param":{"num_deleted":"0","num_feature":"25","num_nodes":"37","size_leaf_vector":"1"}},{"base_weights":[8.6851204E1,-3.7330535E3,5.81603E3,-6.8354287E3,-1.1515468E3,4.3282036E3,1.1486416E4,-4.0482025E2,-5.692296E3,-1.7160223E3,4.0640625E2,2.5112502E3,6.0619224E3,6.8111847E2,3.929636E2,-2.994587E2,-1.711074E2,-3.0809187E3,-1.2552047E3,-6.02405E2,1.153944E3,1.5752816E3,1.6286247E2,3.65068E3,3.4271024E2,-1.7031244E2,-9.0416435E1,-7.547996E1,4.432905E1,-5.6179745E1,2.421317E-1,2.9000586E1,1.0547422E2,2.3634989E1,9.492931E1,2.147658E2,9.839199E1],"categories":[],"categories_nodes":[],"categories_segments":[],"categories_sizes":[],"default_left":[0,0,0,0,0,0,0,0,0,0,0,0,0,0,0,0,0,0,0,0,0,0,0,0,0,0,0,0,0,0,0,0,0,0,0,0,0],"id":23,"left_children":[1,3,5,7,9,11,13,-1,15,17,19,21,23,-1,-1,-1,-1,25,27,29,31,33,-1,35,-1,-1,-1,-1,-1,-1,-1,-1,-1,-1,-1,-1,-1],"loss_changes":[7.0029993E9,1.5298189E9,1.0301624E9,7.931981E7,9.391661E7,3.0923597E8,9.437082E7,0E0,1.2528128E7,4.5192304E7,2.2564752E7,3.1176928E7,7.431744E7,0E0,0E0,0E0,0E0,1.706608E6,3.402987E7,4.119828E6,8.099534E6,8.01428E6,0E0,7.819808E6,0E0,0E0,0E0,0E0,0E0,0E0,0E0,0E0,0E0,0E0,0E0,0E0,0E0],"parents":[2147483647,0,0,1,1,2,2,3,3,4,4,5,5,6,6,8,8,9,9,10,10,11,11,12,12,17,17,18,18,19,19,20,20,21,21,23,23],"right_children":[2,4,6,8,10,12,14,-1,16,18,20,22,24,-1,-1,-1,-1,26,28,30,32,34,-1,36,-1,-1,-1,-1,-1,-1,-1,-1,-1,-1,-1,-1,-1],"split_conditions":[5.4222332E4,3.5111332E4,7.44E4,2.8667E4,4.8667E4,6.2667E4,7.898338E4,-4.0482025E2,7.5E2,4.2333E4,-1E3,-2.1209091E2,-1.4446666E3,6.8111847E2,3.929636E2,-2.994587E2,-1.711074E2,2.1431719E3,2.334E3,-2.334E3,1.2223334E3,-2.334E3,1.6286247E2,3.9765935E3,3.4271024E2,-1.7031244E2,-9.0416435E1,-7.547996E1,4.432905E1,-5.6179745E1,2.421317E-1,2.9000586E1,1.0547422E2,2.3634989E1,9.492931E1,2.147658E2,9.839199E1],"split_indices":[10,10,10,10,10,10,22,0,24,10,24,24,24,0,0,0,0,17,24,24,24,24,0,17,0,0,0,0,0,0,0,0,0,0,0,0,0],"split_type":[0,0,0,0,0,0,0,0,0,0,0,0,0,0,0,0,0,0,0,0,0,0,0,0,0,0,0,0,0,0,0,0,0,0,0,0,0],"sum_hessian":[3.18E2,1.91E2,1.27E2,8.6E1,1.05E2,1.02E2,2.5E1,3.8E1,4.8E1,7.7E1,2.8E1,5.1E1,5.1E1,1.4E1,1.1E1,4.1E1,7E0,1.8E1,5.9E1,1.2E1,1.6E1,2.4E1,2.7E1,1.4E1,3.7E1,1.3E1,5E0,5.3E1,6E0,6E0,6E0,1.1E1,5E0,6E0,1.8E1,9E0,5E0],"tree_param":{"num_deleted":"0","num_feature":"25","num_nodes":"37","size_leaf_vector":"1"}},{"base_weights":[1.275693E1,-3.7388872E3,4.889803E3,-6.478495E3,-1.1617882E3,3.3180876E3,9.885424E3,-7.0174785E3,-1.9962955E2,-1.8895602E3,-4.9685638E2,1.7303868E3,4.708304E3,4.1176364E2,6.6854E2,-4.0519003E2,-3.0608224E2,-2.1714834E3,-1.2428564E3,-7.4098193E2,1.3844376E2,1.09507E3,2.3727263E3,3.5494475E3,5.3878413E3,-4.7846653E1,-1.2176244E2,-3.4149696E1,-8.586724E1,-2.1387493E1,-6.431764E1,3.1841253E1,-2.6105497E1,8.270032E1,4.149978E1,1.3730959E2,5.1003685E1,1.9459547E2,1.0808834E2,2.9114374E2,1.766215E2],"categories":[],"categories_nodes":[],"categories_segments":[],"categories_sizes":[],"default_left":[0,0,0,0,0,0,0,0,0,0,0,0,0,0,0,0,0,0,0,0,0,0,0,0,0,0,0,0,0,0,0,0,0,0,0,0,0,0,0,0,0],"id":24,"left_children":[1,3,5,7,9,11,13,15,-1,17,19,21,23,-1,-1,-1,-1,25,27,29,31,33,35,37,39,-1,-1,-1,-1,-1,-1,-1,-1,-1,-1,-1,-1,-1,-1,-1,-1],"loss_changes":[5.891601E9,1.2774372E9,1.06643686E9,8.988979E7,4.503344E7,2.3023552E8,7.968384E7,1.9485952E7,0E0,5.505584E6,8.012326E6,1.862232E7,2.5762816E7,0E0,0E0,0E0,0E0,7.28032E6,3.077436E6,5.770388E6,5.270607E6,2.775656E6,9.82792E6,2.992032E6,6.874752E6,0E0,0E0,0E0,0E0,0E0,0E0,0E0,0E0,0E0,0E0,0E0,0E0,0E0,0E0,0E0,0E0],"parents":[2147483647,0,0,1,1,2,2,3,3,4,4,5,5,6,6,7,7,9,9,10,10,11,11,12,12,17,17,18,18,19,19,20,20,21,21,22,22,23,23,24,24],"right_children":[2,4,6,8,10,12,14,16,-1,18,20,22,24,-1,-1,-1,-1,26,28,30,32,34,36,38,40,-1,-1,-1,-1,-1,-1,-1,-1,-1,-1,-1,-1,-1,-1,-1,-1],"split_conditions":[5.2E4,3.9777668E4,7.26E4,3.1888666E4,4.6151637E4,6.0555668E4,7.9889E4,2.5222E4,-1.9962955E2,4.5303273E4,4.9333E4,5.6444332E4,6.4704E4,4.1176364E2,6.6854E2,-4.0519003E2,-3.0608224E2,4.0222332E4,4.6151637E4,4.8222E4,5.2E4,3.600506E3,6.0555668E4,6.3777668E4,7.32E4,-4.7846653E1,-1.2176244E2,-3.4149696E1,-8.586724E1,-2.1387493E1,-6.431764E1,3.1841253E1,-2.6105497E1,8.270032E1,4.149978E1,1.3730959E2,5.1003685E1,1.9459547E2,1.0808834E2,2.9114374E2,1.766215E2],"split_indices":[16,16,16,16,16,16,10,16,0,16,16,16,16,0,0,0,0,11,11,11,11,23,11,11,13,0,0,0,0,0,0,0,0,0,0,0,0,0,0,0,0],"split_type":[0,0,0,0,0,0,0,0,0,0,0,0,0,0,0,0,0,0,0,0,0,0,0,0,0,0,0,0,0,0,0,0,0,0,0,0,0,0,0,0,0],"sum_hessian":[3.2E2,1.81E2,1.39E2,8.7E1,9.4E1,1.07E2,3.2E1,7E1,1.7E1,4.4E1,5E1,5.1E1,5.6E1,2.4E1,8E0,2.8E1,4.2E1,2.9E1,1.5E1,3.6E1,1.4E1,2.7E1,2.4E1,2.3E1,3.3E1,6E0,2.3E1,8E0,7E0,2.4E1,1.2E1,8E0,6E0,7E0,2E1,1.8E1,6E0,1.7E1,6E0,2.5E1,8E0],"tree_param":{"num_deleted":"0","num_feature":"25","num_nodes":"41","size_leaf_vector":"1"}},{"base_weights":[2.3398665E2,-3.2672217E3,5.334709E3,-6.1838335E3,-9.028156E2,3.3117512E3,8.56991E3,-3.7616208E2,-5.379786E3,-1.5002527E3,2.3572435E2,2.6720981E3,2.9740427E2,3.5623734E2,6.457295E2,-5.5721025E3,-1.424232E2,-2.4446626E3,-1.036143E3,-2.4636537E2,7.810016E1,1.9137532E3,1.9347838E2,-2.9097406E2,-1.757504E2,-1.409763E2,-7.181055E1,-6.2293873E1,8.413233E0,-5.060554E1,2.8539436E0,7.8504233E0,1.070386E2],"categories":[],"categories_nodes":[],"categories_segments":[],"categories_sizes":[],"default_left":[0,0,0,0,0,0,0,0,0,0,0,0,0,0,0,0,0,0,0,0,0,0,0,0,0,0,0,0,0,0,0,0,0],"id":25,"left_children":[1,3,5,7,9,11,13,-1,15,17,19,21,-1,-1,-1,23,-1,25,27,29,-1,31,-1,-1,-1,-1,-1,-1,-1,-1,-1,-1,-1],"loss_changes":[5.660776E9,1.2908754E9,8.158817E8,4.9990144E7,7.177528E7,1.2069965E8,2.1564646E8,0E0,1.1389568E7,2.7710368E7,2.4042084E7,5.343696E7,0E0,0E0,0E0,5.497472E6,0E0,4.267256E6,1.2334724E7,6.56388E6,0E0,1.681288E7,0E0,0E0,0E0,0E0,0E0,0E0,0E0,0E0,0E0,0E0,0E0],"parents":[2147483647,0,0,1,1,2,2,3,3,4,4,5,5,6,6,8,8,9,9,10,10,11,11,15,15,17,17,18,18,19,19,21,21],"right_children":[2,4,6,8,10,12,14,-1,16,18,20,22,-1,-1,-1,24,-1,26,28,30,-1,32,-1,-1,-1,-1,-1,-1,-1,-1,-1,-1,-1],"split_conditions":[5.4222332E4,3.7555668E4,7.0667E4,2.6E4,4.8E4,1.666E3,7.9889E4,-3.7616208E2,2E3,4.3444332E4,2.2233333E2,6.1778E4,2.9740427E2,3.5623734E2,6.457295E2,3.3917E4,-1.424232E2,5E2,1.1334E3,-2.334E3,7.810016E1,-3E3,1.9347838E2,-2.9097406E2,-1.757504E2,-1.409763E2,-7.181055E1,-6.2293873E1,8.413233E0,-5.060554E1,2.8539436E0,7.8504233E0,1.070386E2],"split_indices":[10,10,10,10,10,24,10,0,24,10,24,10,0,0,0,10,0,24,24,24,0,24,0,0,0,0,0,0,0,0,0,0,0],"split_type":[0,0,0,0,0,0,0,0,0,0,0,0,0,0,0,0,0,0,0,0,0,0,0,0,0,0,0,0,0,0,0,0,0],"sum_hessian":[3.15E2,1.87E2,1.28E2,8.3E1,1.04E2,8E1,4.8E1,2.8E1,5.5E1,6.8E1,3.6E1,6.6E1,1.4E1,3.8E1,1E1,5E1,5E0,2.1E1,4.7E1,2.7E1,9E0,4.2E1,2.4E1,4.3E1,7E0,1.4E1,7E0,4E1,7E0,7E0,2E1,5E0,3.7E1],"tree_param":{"num_deleted":"0","num_feature":"25","num_nodes":"33","size_leaf_vector":"1"}},{"base_weights":[1.3892801E2,-3.342527E3,4.8607554E3,-6.006008E3,-1.1885063E3,3.344233E3,1.0211631E4,-3.7895605E2,-5.2103584E3,-2.3867305E3,-4.8494165E2,1.8874529E3,5.008817E3,6.570705E2,3.5964795E2,-2.7568646E2,-1.8319011E2,-2.7866567E3,-1.2244747E3,5.8676727E1,-6.481471E2,1.2309127E3,2.500032E3,5.4144297E3,3.7825469E3,-1.6069499E2,-1.0560955E2,-7.607979E1,-3.616374E1,-4.001069E1,8.089707E0,7.161581E1,4.1311573E1,1.4100801E2,6.735957E1,1.7076582E2,2.9587668E2,2.3450325E2,1.2011053E2],"categories":[],"categories_nodes":[],"categories_segments":[],"categories_sizes":[],"default_left":[0,0,0,0,0,0,0,0,0,0,0,0,0,0,0,0,0,0,0,0,0,0,0,0,0,0,0,0,0,0,0,0,0,0,0,0,0,0,0],"id":26,"left_children":[1,3,5,7,9,11,13,-1,15,17,19,21,23,-1,-1,-1,-1,25,27,-1,29,31,33,35,37,-1,-1,-1,-1,-1,-1,-1,-1,-1,-1,-1,-1,-1,-1],"loss_changes":[4.9972127E9,9.968705E8,1.0126492E9,5.8138624E7,8.145934E7,2.3788915E8,1.5310746E8,0E0,5.603584E6,1.33212E7,1.781298E7,1.9444912E7,2.897024E6,0E0,0E0,0E0,0E0,7.03824E5,5.37557E5,0E0,7.273042E6,1.1802E6,6.534304E6,1.297984E7,7.523664E6,0E0,0E0,0E0,0E0,0E0,0E0,0E0,0E0,0E0,0E0,0E0,0E0,0E0,0E0],"parents":[2147483647,0,0,1,1,2,2,3,3,4,4,5,5,6,6,8,8,9,9,10,10,11,11,12,12,17,17,18,18,20,20,21,21,22,22,23,23,24,24],"right_children":[2,4,6,8,10,12,14,-1,16,18,20,22,24,-1,-1,-1,-1,26,28,-1,30,32,34,36,38,-1,-1,-1,-1,-1,-1,-1,-1,-1,-1,-1,-1,-1,-1],"split_conditions":[5.2333332E4,3.4667E4,7.3518664E4,2.5222E4,4.5444332E4,6.2444332E4,6E1,-3.7895605E2,3.2333E4,4.5E4,4.4667E4,5.71665E4,7.26E4,6.570705E2,3.5964795E2,-2.7568646E2,-1.8319011E2,2.1E1,1.9E1,5.8676727E1,5.0111E4,3.5453962E3,6.3777668E4,2.3E1,2.2856013E3,-1.6069499E2,-1.0560955E2,-7.607979E1,-3.616374E1,-4.001069E1,8.089707E0,7.161581E1,4.1311573E1,1.4100801E2,6.735957E1,1.7076582E2,2.9587668E2,2.3450325E2,1.2011053E2],"split_indices":[16,10,16,16,16,16,6,0,10,12,12,16,13,0,0,0,0,2,2,0,16,19,13,6,19,0,0,0,0,0,0,0,0,0,0,0,0,0,0],"split_type":[0,0,0,0,0,0,0,0,0,0,0,0,0,0,0,0,0,0,0,0,0,0,0,0,0,0,0,0,0,0,0,0,0,0,0,0,0,0,0],"sum_hessian":[3.02E2,1.74E2,1.28E2,7.7E1,9.7E1,1.01E2,2.7E1,2.3E1,5.4E1,3.5E1,6.2E1,5.5E1,4.6E1,1.2E1,1.5E1,4.3E1,1.1E1,2.5E1,1E1,5E0,5.7E1,2.8E1,2.7E1,3.2E1,1.4E1,1.3E1,1.2E1,5E0,5E0,4.8E1,9E0,1.7E1,1.1E1,2E1,7E0,8E0,2.4E1,7E0,7E0],"tree_param":{"num_deleted":"0","num_feature":"25","num_nodes":"39","size_leaf_vector":"1"}},{"base_weights":[-8.101271E1,-3.549743E3,4.0341777E3,-5.7859893E3,-1.399244E3,2.3936814E3,7.745461E3,-3.489416E2,-5.0985225E3,-2.5842512E3,-9.471317E2,9.24528E2,3.3266104E3,6.319449E3,5.724501E2,-2.6961554E2,-1.589244E2,-1.6577678E2,-9.622225E1,-1.5629135E3,-2.8398886E2,-1.9685487E2,1.3953367E3,2.775127E3,2.8156018E2,1.7142992E2,3.408234E2,-1.042542E2,-6.1126198E1,-2.7151304E1,4.8609146E1,2.1003149E1,-4.9330143E1,5.0989697E1,1.0034441E2,3.1910883E1,1.5199901E2],"categories":[],"categories_nodes":[],"categories_segments":[],"categories_sizes":[],"default_left":[0,0,0,0,0,0,0,0,0,0,0,0,0,0,0,0,0,0,0,0,0,0,0,0,0,0,0,0,0,0,0,0,0,0,0,0,0],"id":27,"left_children":[1,3,5,7,9,11,13,-1,15,17,19,21,23,25,-1,-1,-1,-1,-1,27,29,31,33,35,-1,-1,-1,-1,-1,-1,-1,-1,-1,-1,-1,-1,-1],"loss_changes":[4.5250575E9,8.190597E8,8.6427034E8,3.3301504E7,4.523469E7,1.367273E8,1.6002534E8,0E0,1.5013376E7,5.199584E6,2.6507336E7,2.1920904E7,6.317133E7,2.5480448E7,0E0,0E0,0E0,0E0,0E0,3.494136E6,1.1265964E7,6.748161E6,4.613636E6,2.7490144E7,0E0,0E0,0E0,0E0,0E0,0E0,0E0,0E0,0E0,0E0,0E0,0E0,0E0],"parents":[2147483647,0,0,1,1,2,2,3,3,4,4,5,5,6,6,8,8,9,9,10,10,11,11,12,12,13,13,19,19,20,20,21,21,22,22,23,23],"right_children":[2,4,6,8,10,12,14,-1,16,18,20,22,24,26,-1,-1,-1,-1,-1,28,30,32,34,36,-1,-1,-1,-1,-1,-1,-1,-1,-1,-1,-1,-1,-1],"split_conditions":[5.0000332E4,3.4667E4,7.0667E4,2.6E4,4.3444332E4,5.6667E4,7.9889E4,-3.489416E2,7.5E2,-6.66E2,-2E2,-1.666E3,1.666E3,-2.667E3,5.724501E2,-2.6961554E2,-1.589244E2,-1.6577678E2,-9.622225E1,-1.4446666E3,2.334E3,1.8357458E3,1.2223334E3,-4.333E3,2.8156018E2,1.7142992E2,3.408234E2,-1.042542E2,-6.1126198E1,-2.7151304E1,4.8609146E1,2.1003149E1,-4.9330143E1,5.0989697E1,1.0034441E2,3.1910883E1,1.5199901E2],"split_indices":[10,10,10,10,10,10,10,0,24,24,24,24,24,24,0,0,0,0,0,24,24,17,24,24,0,0,0,0,0,0,0,0,0,0,0,0,0],"split_type":[0,0,0,0,0,0,0,0,0,0,0,0,0,0,0,0,0,0,0,0,0,0,0,0,0,0,0,0,0,0,0,0,0,0,0,0,0],"sum_hessian":[3.15E2,1.71E2,1.44E2,8.3E1,8.8E1,1.01E2,4.3E1,2.7E1,5.6E1,2.3E1,6.5E1,4E1,6.1E1,3.3E1,1E1,4.7E1,9E0,9E0,1.4E1,3.3E1,3.2E1,1.2E1,2.8E1,5.1E1,1E1,6E0,2.7E1,1.1E1,2.2E1,2.7E1,5E0,7E0,5E0,1.9E1,9E0,6E0,4.5E1],"tree_param":{"num_deleted":"0","num_feature":"25","num_nodes":"37","size_leaf_vector":"1"}},{"base_weights":[1.7787282E2,-2.695463E3,4.604178E3,-5.229269E3,-6.427471E2,3.7074006E3,5.628681E2,-5.6943677E3,-3.338438E3,-9.4895026E2,1.4153557E3,2.1318574E3,4.9585635E3,-2.9346164E2,-1.6910216E2,-1.8488553E2,-9.7186455E1,-1.3532988E3,7.4603584E1,9.32553E1,2.5241896E1,1.372209E3,3.1155525E3,3.9244902E3,3.1730765E2,-1.00072014E2,-4.8003674E1,-4.6798195E1,2.375502E1,4.815884E1,9.527463E1,1.19892654E2,2.1042004E2,8.167788E1,2.1576006E2],"categories":[],"categories_nodes":[],"categories_segments":[],"categories_sizes":[],"default_left":[0,0,0,0,0,0,0,0,0,0,0,0,0,0,0,0,0,0,0,0,0,0,0,0,0,0,0,0,0,0,0,0,0,0,0],"id":28,"left_children":[1,3,5,7,9,11,-1,13,15,17,19,21,23,-1,-1,-1,-1,25,27,-1,-1,29,31,33,-1,-1,-1,-1,-1,-1,-1,-1,-1,-1,-1],"loss_changes":[3.9423532E9,9.744613E8,6.861683E8,5.486131E7,6.751386E7,2.0429645E8,0E0,6.836736E6,2.333168E6,3.817724E7,4.791502E6,3.3087936E7,6.118669E7,0E0,0E0,0E0,0E0,1.4899592E7,1.137236E7,0E0,0E0,4.70858E6,6.379936E6,2.6069248E7,0E0,0E0,0E0,0E0,0E0,0E0,0E0,0E0,0E0,0E0,0E0],"parents":[2147483647,0,0,1,1,2,2,3,3,4,4,5,5,7,7,8,8,9,9,10,10,11,11,12,12,17,17,18,18,21,21,22,22,23,23],"right_children":[2,4,6,8,10,12,-1,14,16,18,20,22,24,-1,-1,-1,-1,26,28,-1,-1,30,32,34,-1,-1,-1,-1,-1,-1,-1,-1,-1,-1,-1],"split_conditions":[5.4333E4,3.9777668E4,7.6667E4,3.2E4,2.3333333E3,6.2667E4,5.628681E2,1.334E3,2.2233333E2,4.8888668E4,5E0,3.34E2,2.2233333E2,-2.9346164E2,-1.6910216E2,-1.8488553E2,-9.7186455E1,-5.334E2,-2.334E3,9.32553E1,2.5241896E1,5.9333668E4,2.3333333E3,-4.333E3,3.1730765E2,-1.00072014E2,-4.8003674E1,-4.6798195E1,2.375502E1,4.815884E1,9.527463E1,1.19892654E2,2.1042004E2,8.167788E1,2.1576006E2],"split_indices":[10,10,10,10,24,10,0,24,24,10,5,24,24,0,0,0,0,24,24,0,0,10,24,24,0,0,0,0,0,0,0,0,0,0,0],"split_type":[0,0,0,0,0,0,0,0,0,0,0,0,0,0,0,0,0,0,0,0,0,0,0,0,0,0,0,0,0,0,0,0,0,0,0],"sum_hessian":[3.08E2,1.87E2,1.21E2,8.3E1,1.04E2,1.08E2,1.3E1,6.5E1,1.8E1,9.1E1,1.3E1,4.9E1,5.9E1,5.9E1,6E0,1.3E1,5E0,6.5E1,2.6E1,8E0,5E0,2.9E1,2E1,3.6E1,2.3E1,2.3E1,4.2E1,7E0,1.9E1,1.8E1,1.1E1,1.4E1,6E0,6E0,3E1],"tree_param":{"num_deleted":"0","num_feature":"25","num_nodes":"35","size_leaf_vector":"1"}},{"base_weights":[2.4823627E2,-2.5495437E3,4.3784326E3,-5.2085347E3,-7.6254535E2,3.4982205E3,9.660964E3,-3.2058762E2,-2.2533809E2,-1.2102858E3,3.5289578E2,2.244663E3,4.8749897E3,2.799024E2,5.8687714E2,-2.3105984E3,-8.700361E2,9.493284E2,2.6370245E1,1.4715182E3,2.7769558E3,1.3484636E2,2.5228429E2,-8.350326E1,-1.3600359E2,-8.23959E0,-4.902181E1,1.2377669E1,7.076158E1,2.0856924E1,-1.5315414E1,2.6018295E1,9.223079E1,1.5121274E2,9.281418E1],"categories":[],"categories_nodes":[],"categories_segments":[],"categories_sizes":[],"default_left":[0,0,0,0,0,0,0,0,0,0,0,0,0,0,0,0,0,0,0,0,0,0,0,0,0,0,0,0,0,0,0,0,0,0,0],"id":29,"left_children":[1,3,5,7,9,11,13,-1,-1,15,17,19,21,-1,-1,23,25,27,29,31,33,-1,-1,-1,-1,-1,-1,-1,-1,-1,-1,-1,-1,-1,-1],"loss_changes":[3.7204406E9,9.083378E8,5.706711E8,3.612147E7,5.836076E7,1.8407949E8,8.615808E7,0E0,0E0,2.9063328E7,6.596483E6,2.1017536E7,6.096768E6,0E0,0E0,4.40648E5,4.899272E6,3.573165E6,3.117778E6,8.621692E6,2.354944E6,0E0,0E0,0E0,0E0,0E0,0E0,0E0,0E0,0E0,0E0,0E0,0E0,0E0,0E0],"parents":[2147483647,0,0,1,1,2,2,3,3,4,4,5,5,6,6,9,9,10,10,11,11,12,12,15,15,16,16,17,17,18,18,19,19,20,20],"right_children":[2,4,6,8,10,12,14,-1,-1,16,18,20,22,-1,-1,24,26,28,30,32,34,-1,-1,-1,-1,-1,-1,-1,-1,-1,-1,-1,-1,-1,-1],"split_conditions":[5.4333E4,3.4667E4,7.6000336E4,2.6E4,4.8888668E4,6.4333E4,8.469457E3,-3.2058762E2,-2.2533809E2,4.3444332E4,4.8222E4,5.858325E4,3.8E4,2.799024E2,5.8687714E2,4.6777668E4,6E0,5.1333E4,1.667E3,4.1346514E3,6.5E4,1.3484636E2,2.5228429E2,-8.350326E1,-1.3600359E2,-8.23959E0,-4.902181E1,1.2377669E1,7.076158E1,2.0856924E1,-1.5315414E1,2.6018295E1,9.223079E1,1.5121274E2,9.281418E1],"split_indices":[10,10,10,10,10,10,21,0,0,10,15,10,15,0,0,15,2,10,17,23,13,0,0,0,0,0,0,0,0,0,0,0,0,0,0],"split_type":[0,0,0,0,0,0,0,0,0,0,0,0,0,0,0,0,0,0,0,0,0,0,0,0,0,0,0,0,0,0,0,0,0,0,0],"sum_hessian":[3.2E2,1.91E2,1.29E2,7.6E1,1.15E2,1.12E2,1.7E1,2.5E1,5.1E1,8.2E1,3.3E1,6E1,5.2E1,7E0,1E1,1.8E1,6.4E1,1.1E1,2.2E1,2.6E1,3.4E1,5E0,4.7E1,9E0,9E0,9E0,5.5E1,5E0,6E0,1E1,1.2E1,8E0,1.8E1,2.5E1,9E0],"tree_param":{"num_deleted":"0","num_feature":"25","num_nodes":"35","size_leaf_vector":"1"}},{"base_weights":[3.0458748E1,-2.5316558E3,3.8431294E3,-4.575189E3,-7.437874E2,2.462741E3,6.7839062E3,-5.0973037E3,-2.9704954E3,-1.4538595E3,-1.8004546E2,1.6793088E3,3.7175728E3,2.6356097E2,4.608333E2,-3.012545E2,-2.241252E2,-8.668672E1,-1.6023549E2,-2.3123661E1,-1.5945222E3,-4.9997382E2,1.5712338E2,9.4097705E2,1.9511172E3,2.3141943E2,1.5601659E2,-1.1504787E2,-6.357903E1,3.7251955E-1,-3.588981E1,2.4031897E1,-2.0797924E1,7.073028E1,2.7701689E1,1.0873976E2,5.3130196E1],"categories":[],"categories_nodes":[],"categories_segments":[],"categories_sizes":[],"default_left":[0,0,0,0,0,0,0,0,0,0,0,0,0,0,0,0,0,0,0,0,0,0,0,0,0,0,0,0,0,0,0,0,0,0,0,0,0],"id":30,"left_children":[1,3,5,7,9,11,13,15,17,19,21,23,25,-1,-1,-1,-1,-1,-1,-1,27,29,31,33,35,-1,-1,-1,-1,-1,-1,-1,-1,-1,-1,-1,-1],"loss_changes":[3.0868065E9,6.871213E8,4.988388E8,5.858803E7,4.056858E7,8.026774E7,9.861696E7,1.0068736E7,1.395888E6,5.537872E6,6.3350105E6,9.4024E6,3.50912E6,0E0,0E0,0E0,0E0,0E0,0E0,0E0,5.971504E6,3.321197E6,5.576535E6,2.331807E6,5.638688E6,0E0,0E0,0E0,0E0,0E0,0E0,0E0,0E0,0E0,0E0,0E0,0E0],"parents":[2147483647,0,0,1,1,2,2,3,3,4,4,5,5,6,6,7,7,8,8,9,9,10,10,11,11,12,12,20,20,21,21,22,22,23,23,24,24],"right_children":[2,4,6,8,10,12,14,16,18,20,22,24,26,-1,-1,-1,-1,-1,-1,-1,28,30,32,34,36,-1,-1,-1,-1,-1,-1,-1,-1,-1,-1,-1,-1],"split_conditions":[5.4222332E4,3.996289E4,7.1222336E4,3.1888666E4,4.6151637E4,6.3296445E4,7.7667E4,2.5222E4,3.1609768E3,4.0222332E4,4.8888668E4,5.6444332E4,6.1888668E4,2.6356097E2,4.608333E2,-3.012545E2,-2.241252E2,-8.668672E1,-1.6023549E2,-2.3123661E1,4.333343E4,4.625E4,5.3667E4,5.4444668E4,6.3333E4,2.3141943E2,1.5601659E2,-1.1504787E2,-6.357903E1,3.7251955E-1,-3.588981E1,2.4031897E1,-2.0797924E1,7.073028E1,2.7701689E1,1.0873976E2,5.3130196E1],"split_indices":[10,16,16,16,16,16,10,16,23,12,10,16,12,0,0,0,0,0,0,0,18,12,12,11,12,0,0,0,0,0,0,0,0,0,0,0,0],"split_type":[0,0,0,0,0,0,0,0,0,0,0,0,0,0,0,0,0,0,0,0,0,0,0,0,0,0,0,0,0,0,0,0,0,0,0,0,0],"sum_hessian":[3.14E2,1.88E2,1.26E2,8.7E1,1.01E2,8.7E1,3.9E1,6.4E1,2.3E1,4.4E1,5.7E1,5.5E1,3.2E1,2.6E1,1.3E1,2.2E1,4.2E1,5E0,1.8E1,6E0,3.8E1,2.9E1,2.8E1,1.6E1,3.9E1,1E1,2.2E1,1E1,2.8E1,9E0,2E1,1.8E1,1E1,6E0,1E1,3E1,9E0],"tree_param":{"num_deleted":"0","num_feature":"25","num_nodes":"37","size_leaf_vector":"1"}},{"base_weights":[2.3052312E2,-2.4607227E3,4.0256875E3,-4.676001E3,-8.2829645E2,2.7652273E3,7.921167E3,-2.860082E2,-4.095245E3,-2.1098298E3,-4.4775305E2,1.494547E3,3.6752979E3,5.3105054E2,2.828501E2,-2.1610887E2,-1.4179262E2,-1.1757178E2,-6.663445E1,-6.7200977E2,1.0812007E3,8.996109E2,2.2708687E3,2.9034382E3,4.615628E3,-4.719119E1,7.5094676E0,7.2342674E1,2.6767384E1,5.3878E1,6.342708E0,7.048683E1,1.4094005E2,1.6227695E2,6.9295975E1,1.4185971E2,2.5254088E2],"categories":[],"categories_nodes":[],"categories_segments":[],"categories_sizes":[],"default_left":[0,0,0,0,0,0,0,0,0,0,0,0,0,0,0,0,0,0,0,0,0,0,0,0,0,0,0,0,0,0,0,0,0,0,0,0,0],"id":31,"left_children":[1,3,5,7,9,11,13,-1,15,17,19,21,23,-1,-1,-1,-1,-1,-1,25,27,29,31,33,35,-1,-1,-1,-1,-1,-1,-1,-1,-1,-1,-1,-1],"loss_changes":[3.1761592E9,6.5428954E8,6.114989E8,2.3267584E7,5.0749296E7,1.0899149E8,1.294167E8,0E0,2.890176E6,1.372552E6,2.9185456E7,1.7817152E7,2.79696E7,0E0,0E0,0E0,0E0,0E0,0E0,1.6456178E7,1.420951E6,3.438602E6,4.519392E6,1.3152832E7,4.2448E6,0E0,0E0,0E0,0E0,0E0,0E0,0E0,0E0,0E0,0E0,0E0,0E0],"parents":[2147483647,0,0,1,1,2,2,3,3,4,4,5,5,6,6,8,8,9,9,10,10,11,11,12,12,19,19,20,20,21,21,22,22,23,23,24,24],"right_children":[2,4,6,8,10,12,14,-1,16,18,20,22,24,-1,-1,-1,-1,-1,-1,26,28,30,32,34,36,-1,-1,-1,-1,-1,-1,-1,-1,-1,-1,-1,-1],"split_conditions":[5.4E4,3.5111332E4,7.3518664E4,2.5222E4,4.3E4,6.0555668E4,3E0,-2.860082E2,3.2148445E4,4.1111E4,2.333E3,3.34E2,2.2233333E2,5.3105054E2,2.828501E2,-2.1610887E2,-1.4179262E2,-1.1757178E2,-6.663445E1,4.9333E4,5E0,6.0555668E4,5.5667E4,4.143001E3,6.2777668E4,-4.719119E1,7.5094676E0,7.2342674E1,2.6767384E1,5.3878E1,6.342708E0,7.048683E1,1.4094005E2,1.6227695E2,6.9295975E1,1.4185971E2,2.5254088E2],"split_indices":[16,16,16,16,16,16,3,0,16,16,24,24,24,0,0,0,0,0,0,16,5,11,12,19,16,0,0,0,0,0,0,0,0,0,0,0,0],"split_type":[0,0,0,0,0,0,0,0,0,0,0,0,0,0,0,0,0,0,0,0,0,0,0,0,0,0,0,0,0,0,0,0,0,0,0,0,0],"sum_hessian":[3.09E2,1.81E2,1.28E2,7.6E1,1.05E2,9.8E1,3E1,2.4E1,5.2E1,2.3E1,8.2E1,4.2E1,5.6E1,1.2E1,1.8E1,4.2E1,1E1,1.6E1,7E0,7.2E1,1E1,2.5E1,1.7E1,3.3E1,2.3E1,5.4E1,1.8E1,5E0,5E0,2E1,5E0,8E0,9E0,2.6E1,7E0,6E0,1.7E1],"tree_param":{"num_deleted":"0","num_feature":"25","num_nodes":"37","size_leaf_vector":"1"}},{"base_weights":[-4.404144E1,-2.6958042E3,3.1457996E3,-4.669034E3,-1.0850281E3,1.4678217E3,5.314322E3,-2.81759E2,-2.0329979E2,-2.168453E3,-5.5970685E2,6.674064E2,1.8931921E3,4.5374224E3,4.6926193E2,-1.5277781E3,-2.6735996E3,-7.545886E2,5.9533314E1,6.3143623E1,3.9347E2,2.0132529E3,4.0830692E1,3.7623865E3,2.6747256E2,-9.5780685E1,-2.8105825E1,-1.4997005E2,-8.153487E1,-5.579655E1,-2.2272324E1,-1.0869141E0,3.4129704E1,1.2599876E2,8.352147E1,2.016881E2,9.796807E1],"categories":[],"categories_nodes":[],"categories_segments":[],"categories_sizes":[],"default_left":[0,0,0,0,0,0,0,0,0,0,0,0,0,0,0,0,0,0,0,0,0,0,0,0,0,0,0,0,0,0,0,0,0,0,0,0,0],"id":32,"left_children":[1,3,5,7,9,11,13,-1,-1,15,17,19,21,23,-1,25,27,29,-1,-1,31,33,-1,35,-1,-1,-1,-1,-1,-1,-1,-1,-1,-1,-1,-1,-1],"loss_changes":[2.6645128E9,5.416242E8,5.1253824E8,2.194944E7,5.342433E7,2.6655248E7,1.5350208E8,0E0,0E0,5.948016E6,2.3412108E7,4.396691E6,5.206448E6,1.3858304E7,0E0,4.915492E6,5.45344E5,6.20528E6,0E0,0E0,2.6558658E6,3.955248E6,0E0,7.264608E6,0E0,0E0,0E0,0E0,0E0,0E0,0E0,0E0,0E0,0E0,0E0,0E0,0E0],"parents":[2147483647,0,0,1,1,2,2,3,3,4,4,5,5,6,6,9,9,10,10,11,11,12,12,13,13,15,15,16,16,17,17,20,20,21,21,23,23],"right_children":[2,4,6,8,10,12,14,-1,-1,16,18,20,22,24,-1,26,28,30,-1,-1,32,34,-1,36,-1,-1,-1,-1,-1,-1,-1,-1,-1,-1,-1,-1,-1],"split_conditions":[5.0296555E4,3.2148445E4,6.4704E4,2.5037E4,4.333343E4,5.5555668E4,9.2333E4,-2.81759E2,-2.0329979E2,4.4861577E3,2.8353457E3,5.02668E4,6.3777668E4,7.2977664E4,4.6926193E2,4.0222332E4,2.4E1,4.6151637E4,5.9533314E1,6.3143623E1,5.25336E4,6E0,4.0830692E1,7.26E4,2.6747256E2,-9.5780685E1,-2.8105825E1,-1.4997005E2,-8.153487E1,-5.579655E1,-2.2272324E1,-1.0869141E0,3.4129704E1,1.2599876E2,8.352147E1,2.016881E2,9.796807E1],"split_indices":[16,16,16,16,18,16,10,0,0,23,17,12,11,16,0,10,2,16,0,0,16,7,0,11,0,0,0,0,0,0,0,0,0,0,0,0,0],"split_type":[0,0,0,0,0,0,0,0,0,0,0,0,0,0,0,0,0,0,0,0,0,0,0,0,0,0,0,0,0,0,0,0,0,0,0,0,0],"sum_hessian":[3.13E2,1.71E2,1.42E2,7.6E1,9.5E1,8.1E1,6.1E1,2.6E1,5E1,3E1,6.5E1,2.9E1,5.2E1,5.3E1,8E0,1.5E1,1.5E1,5.9E1,6E0,8E0,2.1E1,4.6E1,6E0,3E1,2.3E1,1E1,5E0,1E1,5E0,2.6E1,3.3E1,9E0,1.2E1,1.6E1,3E1,2.5E1,5E0],"tree_param":{"num_deleted":"0","num_feature":"25","num_nodes":"37","size_leaf_vector":"1"}},{"base_weights":[1.3391264E2,-2.3237158E3,3.1698828E3,-4.0789727E3,-7.699577E2,2.3004968E3,6.280948E3,-2.6367154E2,-3.3840876E3,-1.5811478E3,-3.7768176E2,9.721391E2,3.1261917E3,5.170507E3,4.3441748E2,-3.5638306E3,-6.760854E1,-2.1468796E3,-9.519524E2,-5.0566428E2,4.718799E1,4.4538824E2,8.9127205E1,2.2976353E3,4.161228E3,1.5718353E2,2.8504697E2,-1.9765546E2,-1.4008606E2,-8.042469E1,-1.3431882E2,-5.783427E1,-2.0897493E1,-4.189636E1,-9.956611E0,3.6758587E1,-3.6983986E1,4.6972168E1,1.2786344E2,1.373264E2,2.3302583E2],"categories":[],"categories_nodes":[],"categories_segments":[],"categories_sizes":[],"default_left":[0,0,0,0,0,0,0,0,0,0,0,0,0,0,0,0,0,0,0,0,0,0,0,0,0,0,0,0,0,0,0,0,0,0,0,0,0,0,0,0,0],"id":33,"left_children":[1,3,5,7,9,11,13,-1,15,17,19,21,23,25,-1,27,-1,29,31,33,-1,35,-1,37,39,-1,-1,-1,-1,-1,-1,-1,-1,-1,-1,-1,-1,-1,-1,-1,-1],"loss_changes":[2.3352876E9,4.686727E8,3.6421107E8,4.9385216E7,2.8996392E7,1.1870771E8,3.5275136E7,0E0,1.4903104E7,8.634952E6,1.1300995E7,1.7988864E7,4.875488E7,6.80544E6,0E0,3.461504E6,0E0,3.5848E4,1.265811E6,5.842246E6,0E0,1.0159358E7,0E0,1.1702864E7,7.683712E6,0E0,0E0,0E0,0E0,0E0,0E0,0E0,0E0,0E0,0E0,0E0,0E0,0E0,0E0,0E0,0E0],"parents":[2147483647,0,0,1,1,2,2,3,3,4,4,5,5,6,6,8,8,9,9,10,10,11,11,12,12,13,13,15,15,17,17,18,18,19,19,21,21,23,23,24,24],"right_children":[2,4,6,8,10,12,14,-1,16,18,20,22,24,26,-1,28,-1,30,32,34,-1,36,-1,38,40,-1,-1,-1,-1,-1,-1,-1,-1,-1,-1,-1,-1,-1,-1,-1,-1],"split_conditions":[5.2E4,3.9777668E4,7.2977664E4,2.5222334E4,4.5444332E4,5.9333668E4,9.314822E4,-2.6367154E2,2E3,-5.334E2,3.7906416E3,3.34E2,2.2233333E2,-2.2233333E2,4.3441748E2,3.06665E4,-6.760854E1,1.1628976E3,1.156579E3,-2E2,4.718799E1,2.6946587E3,8.9127205E1,-4.333E3,6.2777668E4,1.5718353E2,2.8504697E2,-1.9765546E2,-1.4008606E2,-8.042469E1,-1.3431882E2,-5.783427E1,-2.0897493E1,-4.189636E1,-9.956611E0,3.6758587E1,-3.6983986E1,4.6972168E1,1.2786344E2,1.373264E2,2.3302583E2],"split_indices":[16,16,16,16,16,16,16,0,24,24,17,24,24,24,0,16,0,17,17,24,0,17,0,24,16,0,0,0,0,0,0,0,0,0,0,0,0,0,0,0,0],"split_type":[0,0,0,0,0,0,0,0,0,0,0,0,0,0,0,0,0,0,0,0,0,0,0,0,0,0,0,0,0,0,0,0,0,0,0,0,0,0,0,0,0],"sum_hessian":[3.11E2,1.72E2,1.39E2,8E1,9.2E1,1.1E2,2.9E1,2.7E1,5.3E1,2.9E1,6.3E1,4.3E1,6.7E1,2.2E1,7E0,4.8E1,5E0,1.4E1,1.5E1,5.8E1,5E0,2.7E1,1.6E1,3.9E1,2.8E1,6E0,1.6E1,2.9E1,1.9E1,9E0,5E0,1E1,5E0,2.7E1,3.1E1,2.2E1,5E0,7E0,3.2E1,9E0,1.9E1],"tree_param":{"num_deleted":"0","num_feature":"25","num_nodes":"41","size_leaf_vector":"1"}},{"base_weights":[1.2696615E2,-2.2031523E3,2.8858513E3,-3.8045693E3,-7.9077814E2,1.9122428E3,6.142448E3,-4.162345E3,-2.1580408E3,-1.5113569E3,-4.2343155E2,9.971786E2,2.9137148E3,4.823554E3,4.488502E2,-2.2691483E2,-1.3283748E2,-1.3177855E2,-4.6144775E1,-1.8398376E3,-1.890276E1,-6.606937E2,3.4821875E2,3.6991086E2,1.7269065E3,2.0597144E3,4.0763003E3,1.4041948E2,2.6696274E2,-7.070982E1,-1.4050609E2,-5.915332E1,-2.2389631E1,-1.1858956E1,3.8241863E1,-2.3164593E1,2.8611301E1,6.9988914E1,1.3192796E2,1.1308856E2,4.0358658E1,1.2196918E2,2.2176878E2],"categories":[],"categories_nodes":[],"categories_segments":[],"categories_sizes":[],"default_left":[0,0,0,0,0,0,0,0,0,0,0,0,0,0,0,0,0,0,0,0,0,0,0,0,0,0,0,0,0,0,0,0,0,0,0,0,0,0,0,0,0,0,0],"id":34,"left_children":[1,3,5,7,9,11,13,15,17,19,21,23,25,27,-1,-1,-1,-1,-1,29,-1,31,33,35,37,39,41,-1,-1,-1,-1,-1,-1,-1,-1,-1,-1,-1,-1,-1,-1,-1,-1],"loss_changes":[1.9799165E9,3.7471206E8,4.3531597E8,3.69664E7,2.318324E7,9.789974E7,7.633024E7,2.3602816E7,7.004744E6,1.0472472E7,1.1398155E7,2.6367548E7,4.3232096E7,9.94656E6,0E0,0E0,0E0,0E0,0E0,5.524768E6,0E0,4.697276E6,3.839717E6,5.8279005E6,4.358736E6,6.273072E6,1.523712E6,0E0,0E0,0E0,0E0,0E0,0E0,0E0,0E0,0E0,0E0,0E0,0E0,0E0,0E0,0E0,0E0],"parents":[2147483647,0,0,1,1,2,2,3,3,4,4,5,5,6,6,7,7,8,8,9,9,10,10,11,11,12,12,13,13,19,19,21,21,22,22,23,23,24,24,25,25,26,26],"right_children":[2,4,6,8,10,12,14,16,18,20,22,24,26,28,-1,-1,-1,-1,-1,30,-1,32,34,36,38,40,42,-1,-1,-1,-1,-1,-1,-1,-1,-1,-1,-1,-1,-1,-1,-1,-1],"split_conditions":[5.14002E4,3.9777668E4,7.2977664E4,1.1334E3,4.5444332E4,6.0555668E4,9.314822E4,3.1888666E4,2.3094011E3,8.89E2,1.1334E3,-1.11E2,4.4466666E2,-1.333E3,4.488502E2,-2.2691483E2,-1.3283748E2,-1.3177855E2,-4.6144775E1,1.1628976E3,-1.890276E1,-1.334E3,1.7688419E3,-3.334E3,3.2223333E3,4.0719958E3,6.2777668E4,1.4041948E2,2.6696274E2,-7.070982E1,-1.4050609E2,-5.915332E1,-2.2389631E1,-1.1858956E1,3.8241863E1,-2.3164593E1,2.8611301E1,6.9988914E1,1.3192796E2,1.1308856E2,4.0358658E1,1.2196918E2,2.2176878E2],"split_indices":[16,16,16,24,16,16,16,16,17,24,24,24,24,24,0,0,0,0,0,17,0,24,19,24,24,19,16,0,0,0,0,0,0,0,0,0,0,0,0,0,0,0,0],"split_type":[0,0,0,0,0,0,0,0,0,0,0,0,0,0,0,0,0,0,0,0,0,0,0,0,0,0,0,0,0,0,0,0,0,0,0,0,0,0,0,0,0,0,0],"sum_hessian":[3.06E2,1.66E2,1.4E2,7.7E1,8.9E1,1.09E2,3.1E1,6.2E1,1.5E1,2.9E1,6E1,5.8E1,5.1E1,2.3E1,8E0,4.8E1,1.4E1,1E1,5E0,2.2E1,7E0,4.6E1,1.4E1,3.2E1,2.6E1,3.1E1,2E1,6E0,1.7E1,1.7E1,5E0,1.2E1,3.4E1,6E0,8E0,6E0,2.6E1,2.1E1,5E0,2.6E1,5E0,5E0,1.5E1],"tree_param":{"num_deleted":"0","num_feature":"25","num_nodes":"43","size_leaf_vector":"1"}},{"base_weights":[-9.4639915E1,-2.3893418E3,2.5936384E3,-3.9018535E3,-9.1842896E2,1.2125483E3,4.552992E3,-4.054718E3,-6.194128E1,-1.6229624E3,-5.26033E2,9.745311E2,1.7205757E2,3.5907102E3,7.458296E3,-2.2977686E2,-1.6018828E2,-1.1911254E2,-1.0862415E3,-6.9847266E2,4.150474E1,-3.2345E1,1.1891759E3,3.3614193E1,3.9221353E3,2.128168E2,4.3821182E2,-3.719271E1,-6.2625587E1,-5.5208828E1,-1.4096275E1,3.6715263E1,8.762093E1,1.7171727E2,2.9352316E2],"categories":[],"categories_nodes":[],"categories_segments":[],"categories_sizes":[],"default_left":[0,0,0,0,0,0,0,0,0,0,0,0,0,0,0,0,0,0,0,0,0,0,0,0,0,0,0,0,0,0,0,0,0,0,0],"id":35,"left_children":[1,3,5,7,9,11,13,15,-1,17,19,21,-1,23,25,-1,-1,-1,27,29,-1,-1,31,-1,33,-1,-1,-1,-1,-1,-1,-1,-1,-1,-1],"loss_changes":[1.9555372E9,3.7685248E8,3.8956147E8,2.9171968E7,2.3474408E7,4.279527E7,1.4096269E8,2.1633664E7,0E0,1.00456E7,1.414311E7,2.8611808E7,0E0,4.282355E7,2.12384E7,0E0,0E0,0E0,2.06888E5,8.476434E6,0E0,0E0,1.6903576E7,0E0,1.9754496E7,0E0,0E0,0E0,0E0,0E0,0E0,0E0,0E0,0E0,0E0],"parents":[2147483647,0,0,1,1,2,2,3,3,4,4,5,5,6,6,7,7,9,9,10,10,11,11,13,13,14,14,18,18,19,19,22,22,24,24],"right_children":[2,4,6,8,10,12,14,16,-1,18,20,22,-1,24,26,-1,-1,-1,28,30,-1,-1,32,-1,34,-1,-1,-1,-1,-1,-1,-1,-1,-1,-1],"split_conditions":[5E4,3.4667E4,6.7333E4,2.2223333E3,-5.334E2,3.2223333E3,7.5E2,3E4,-6.194128E1,4.419057E4,3.5906543E3,-3.334E3,1.7205757E2,-4.333E3,7.107143E4,-2.2977686E2,-1.6018828E2,-1.1911254E2,4.9667E4,4.5667E4,4.150474E1,-3.2345E1,5.858325E4,3.3614193E1,7.6667E4,2.128168E2,4.3821182E2,-3.719271E1,-6.2625587E1,-5.5208828E1,-1.4096275E1,3.6715263E1,8.762093E1,1.7171727E2,2.9352316E2],"split_indices":[10,10,10,24,24,24,24,10,0,18,17,24,0,24,18,0,0,0,14,10,0,0,10,0,10,0,0,0,0,0,0,0,0,0,0],"split_type":[0,0,0,0,0,0,0,0,0,0,0,0,0,0,0,0,0,0,0,0,0,0,0,0,0,0,0,0,0,0,0,0,0,0,0],"sum_hessian":[3.15E2,1.7E2,1.45E2,8.3E1,8.7E1,8.6E1,5.9E1,7.8E1,5E0,3E1,5.7E1,7.9E1,7E0,4.6E1,1.3E1,4.5E1,3.3E1,1.1E1,1.9E1,5.1E1,6E0,9E0,7E1,5E0,4.1E1,5E0,8E0,8E0,1.1E1,2.5E1,2.6E1,4E1,3E1,3.5E1,6E0],"tree_param":{"num_deleted":"0","num_feature":"25","num_nodes":"35","size_leaf_vector":"1"}},{"base_weights":[-4.043705E1,-2.2646753E3,2.744152E3,-3.4028682E3,-6.433009E2,1.921373E3,6.41917E3,-4.251669E3,-2.762663E3,-7.911607E2,4.3191433E1,1.1985765E3,3.1966992E3,2.3381363E2,4.4990338E2,-2.2476872E2,-1.195472E2,-3.1294287E3,-1.629303E3,-1.1517607E3,-5.189616E2,-9.741626E1,1.5241984E3,1.3779819E3,3.7389312E3,-1.678273E2,-1.1125724E2,-4.940062E1,-9.070865E1,-6.43824E1,-2.8007477E1,-4.0427135E1,-1.4610913E1,-3.8774246E1,1.9348673E1,6.598902E1,1.5719984E2,8.7748924E1,3.8566082E1,1.5902592E2,2.3752745E2],"categories":[],"categories_nodes":[],"categories_segments":[],"categories_sizes":[],"default_left":[0,0,0,0,0,0,0,0,0,0,0,0,0,0,0,0,0,0,0,0,0,0,0,0,0,0,0,0,0,0,0,0,0,0,0,0,0,0,0,0,0],"id":36,"left_children":[1,3,5,7,9,11,13,15,17,19,-1,21,23,-1,-1,-1,-1,25,27,29,31,33,35,37,39,-1,-1,-1,-1,-1,-1,-1,-1,-1,-1,-1,-1,-1,-1,-1,-1],"loss_changes":[1.9386145E9,3.1891693E8,4.0796454E8,4.3681536E7,1.695103E7,1.0217568E8,7.029146E7,8.297536E6,2.0257568E7,5.978668E6,0E0,3.1798736E7,3.528064E7,0E0,0E0,0E0,0E0,1.773216E6,2.2302E5,1.529708E6,2.390153E6,5.555284E6,1.5717568E7,1.162144E6,2.40272E6,0E0,0E0,0E0,0E0,0E0,0E0,0E0,0E0,0E0,0E0,0E0,0E0,0E0,0E0,0E0,0E0],"parents":[2147483647,0,0,1,1,2,2,3,3,4,4,5,5,6,6,7,7,8,8,9,9,11,11,12,12,17,17,18,18,19,19,20,20,21,21,22,22,23,23,24,24],"right_children":[2,4,6,8,10,12,14,16,18,20,-1,22,24,-1,-1,-1,-1,26,28,30,32,34,36,38,40,-1,-1,-1,-1,-1,-1,-1,-1,-1,-1,-1,-1,-1,-1,-1,-1],"split_conditions":[5E4,4.2000145E4,7.3667E4,2.8E4,2.333E3,6.3777668E4,7.9889E4,1.334E3,2.2233333E2,-5.334E2,4.3191433E1,-1.666E3,-2E3,2.3381363E2,4.4990338E2,-2.2476872E2,-1.195472E2,3.5111332E4,1.6E1,4.8E4,4.6E4,-3.334E3,3.2223333E3,3.6581042E3,7.5E2,-1.678273E2,-1.1125724E2,-4.940062E1,-9.070865E1,-6.43824E1,-2.8007477E1,-4.0427135E1,-1.4610913E1,-3.8774246E1,1.9348673E1,6.598902E1,1.5719984E2,8.7748924E1,3.8566082E1,1.5902592E2,2.3752745E2],"split_indices":[10,18,10,10,24,10,10,24,24,24,0,24,24,0,0,0,0,13,2,10,10,24,24,19,24,0,0,0,0,0,0,0,0,0,0,0,0,0,0,0,0],"split_type":[0,0,0,0,0,0,0,0,0,0,0,0,0,0,0,0,0,0,0,0,0,0,0,0,0,0,0,0,0,0,0,0,0,0,0,0,0,0,0,0,0],"sum_hessian":[3.11E2,1.73E2,1.38E2,1.01E2,7.2E1,1.14E2,2.4E1,4.1E1,6E1,6.6E1,6E0,7.4E1,4E1,1.6E1,8E0,3.5E1,6E0,4.4E1,1.6E1,2.7E1,3.9E1,1.5E1,5.9E1,1E1,3E1,3.3E1,1.1E1,5E0,1.1E1,2.1E1,6E0,1.6E1,2.3E1,6E0,9E0,5.4E1,5E0,5E0,5E0,2.2E1,8E0],"tree_param":{"num_deleted":"0","num_feature":"25","num_nodes":"41","size_leaf_vector":"1"}},{"base_weights":[5.699398E1,-1.7063474E3,3.0526094E3,-3.337556E3,-3.5142767E2,2.113786E3,6.1127583E3,-2.2685806E2,-2.911746E3,-9.174821E2,9.78388E1,1.3569905E3,3.0298367E3,7.6155337E3,2.2515103E2,-1.588387E2,-2.0750032E3,-7.304216E2,-8.130677E1,5.7589874E1,-1.89174E1,1.6152651E3,7.606181E2,1.601976E2,7.6910545E1,4.4672437E2,2.4037492E2,-6.390254E1,-1.13416985E2,1.6189323E1,-4.4748764E1,-1.1533558E1,1.4286285E1,5.6113373E1,9.955686E1,1.3664917E1,5.3720608E1],"categories":[],"categories_nodes":[],"categories_segments":[],"categories_sizes":[],"default_left":[0,0,0,0,0,0,0,0,0,0,0,0,0,0,0,0,0,0,0,0,0,0,0,0,0,0,0,0,0,0,0,0,0,0,0,0,0],"id":37,"left_children":[1,3,5,7,9,11,13,-1,15,17,19,21,23,25,-1,-1,27,29,-1,-1,31,33,35,-1,-1,-1,-1,-1,-1,-1,-1,-1,-1,-1,-1,-1,-1],"loss_changes":[1.6110257E9,4.231771E8,3.117212E8,3.1228864E7,2.7046548E7,5.689571E7,2.8603072E7,0E0,8.266112E6,5.042608E6,7.405162E6,6.472792E6,5.20048E6,1.491456E6,0E0,0E0,2.8456E4,7.055262E6,0E0,0E0,3.6139218E6,4.065752E6,2.305972E6,0E0,0E0,0E0,0E0,0E0,0E0,0E0,0E0,0E0,0E0,0E0,0E0,0E0,0E0],"parents":[2147483647,0,0,1,1,2,2,3,3,4,4,5,5,6,6,8,8,9,9,10,10,11,11,12,12,13,13,16,16,17,17,20,20,21,21,22,22],"right_children":[2,4,6,8,10,12,14,-1,16,18,20,22,24,26,-1,-1,28,30,-1,-1,32,34,36,-1,-1,-1,-1,-1,-1,-1,-1,-1,-1,-1,-1,-1,-1],"split_conditions":[5.4703777E4,3.996289E4,7.3518664E4,2.5E4,4.625E4,6.4704E4,3E0,-2.2685806E2,3.2148445E4,4.6555332E4,4.487909E4,3.5453962E3,7.5E4,9.5E4,2.2515103E2,-1.588387E2,3.0222334E4,4.4333E4,-8.130677E1,5.7589874E1,5.0296555E4,2.4527703E3,1.6E1,1.601976E2,7.6910545E1,4.4672437E2,2.4037492E2,-6.390254E1,-1.13416985E2,1.6189323E1,-4.4748764E1,-1.1533558E1,1.4286285E1,5.6113373E1,9.955686E1,1.3664917E1,5.3720608E1],"split_indices":[16,16,16,10,16,16,3,0,16,11,12,19,12,11,0,0,12,15,0,0,16,19,2,0,0,0,0,0,0,0,0,0,0,0,0,0,0],"split_type":[0,0,0,0,0,0,0,0,0,0,0,0,0,0,0,0,0,0,0,0,0,0,0,0,0,0,0,0,0,0,0,0,0,0,0,0,0],"sum_hessian":[3.03E2,1.91E2,1.12E2,8.6E1,1.05E2,8.7E1,2.5E1,2E1,6.6E1,4.6E1,5.9E1,4.9E1,3.8E1,1.1E1,1.4E1,4.8E1,1.8E1,3.8E1,8E0,5E0,5.4E1,3.3E1,1.6E1,3.3E1,5E0,6E0,5E0,5E0,1.3E1,5E0,3.3E1,3.2E1,2.2E1,1.6E1,1.7E1,7E0,9E0],"tree_param":{"num_deleted":"0","num_feature":"25","num_nodes":"37","size_leaf_vector":"1"}},{"base_weights":[5.091164E1,-1.7470115E3,2.6836895E3,-3.430026E3,-5.530194E2,2.1112703E3,6.522893E3,-2.168417E2,-2.8536128E3,-1.2724843E3,-1.3989806E2,1.3069154E3,1.541266E2,3.893939E2,1.5583028E2,-1.4892949E2,-9.125806E1,-8.374059E1,-9.6409534E2,4.8499966E1,-2.3867815E2,8.45645E2,1.7557865E3,-1.5434989E0,-6.285867E1,-2.3389912E1,6.5903244E0,5.03331E1,-2.3354166E0,6.2733532E1,1.1765631E2],"categories":[],"categories_nodes":[],"categories_segments":[],"categories_sizes":[],"default_left":[0,0,0,0,0,0,0,0,0,0,0,0,0,0,0,0,0,0,0,0,0,0,0,0,0,0,0,0,0,0,0],"id":38,"left_children":[1,3,5,7,9,11,13,-1,15,17,19,21,-1,-1,-1,-1,-1,-1,23,-1,25,27,29,-1,-1,-1,-1,-1,-1,-1,-1],"loss_changes":[1.4815503E9,3.7187117E8,2.6532794E8,2.7872E7,3.2516876E7,8.347018E7,4.467072E7,0E0,9.90208E5,3.348256E6,8.015658E6,1.155944E7,0E0,0E0,0E0,0E0,0E0,0E0,6.798886E6,0E0,5.6641E6,4.788592E6,6.327024E6,0E0,0E0,0E0,0E0,0E0,0E0,0E0,0E0],"parents":[2147483647,0,0,1,1,2,2,3,3,4,4,5,5,6,6,8,8,9,9,10,10,11,11,18,18,20,20,21,21,22,22],"right_children":[2,4,6,8,10,12,14,-1,16,18,20,22,-1,-1,-1,-1,-1,-1,24,-1,26,28,30,-1,-1,-1,-1,-1,-1,-1,-1],"split_conditions":[5.4222332E4,3.4667E4,7.6667E4,2.5222E4,4.5777668E4,6.4704E4,6E1,-2.168417E2,3.2148445E4,4.1111E4,4.4667E4,5.9333668E4,1.541266E2,3.893939E2,1.5583028E2,-1.4892949E2,-9.125806E1,-8.374059E1,4.1667E4,4.8499966E1,5.0000332E4,6.0000332E4,4E0,-1.5434989E0,-6.285867E1,-2.3389912E1,6.5903244E0,5.03331E1,-2.3354166E0,6.2733532E1,1.1765631E2],"split_indices":[16,10,16,16,16,16,6,0,16,16,12,16,0,0,0,0,0,0,11,0,16,11,5,0,0,0,0,0,0,0,0],"split_type":[0,0,0,0,0,0,0,0,0,0,0,0,0,0,0,0,0,0,0,0,0,0,0,0,0,0,0,0,0,0,0],"sum_hessian":[3.11E2,1.85E2,1.26E2,7.6E1,1.09E2,1.11E2,1.5E1,2.7E1,4.9E1,3.9E1,7E1,6.2E1,4.9E1,1E1,5E0,4.2E1,7E0,1.5E1,2.4E1,5E0,6.5E1,3.2E1,3E1,6E0,1.8E1,4E1,2.5E1,2.7E1,5E0,1.8E1,1.2E1],"tree_param":{"num_deleted":"0","num_feature":"25","num_nodes":"31","size_leaf_vector":"1"}},{"base_weights":[1.4063867E2,-1.7889902E3,2.6921113E3,-2.9898464E3,-5.8121484E2,1.7970154E3,5.526354E3,-3.5889539E3,-2.3052876E3,-1.0787395E3,-1.5600897E2,1.4920348E3,3.5203254E3,3.7971567E2,3.725808E3,-1.4180473E2,-4.2426113E3,-1.24681145E2,-3.7983692E1,-1.5086777E3,-7.471665E2,-3.258935E2,4.3065792E1,8.1246844E2,2.0780388E3,1.15222466E2,2.0720882E2,1.1594155E2,2.2051773E2,-2.4832483E2,-1.5665172E2,-5.257722E1,-1.04765465E2,-5.7003246E1,-2.5916107E1,-2.8742277E1,-1.7875782E0,5.197692E0,5.188341E1,5.9015778E1,1.202927E2],"categories":[],"categories_nodes":[],"categories_segments":[],"categories_sizes":[],"default_left":[0,0,0,0,0,0,0,0,0,0,0,0,0,0,0,0,0,0,0,0,0,0,0,0,0,0,0,0,0,0,0,0,0,0,0,0,0,0,0,0,0],"id":39,"left_children":[1,3,5,7,9,11,13,15,17,19,21,23,25,-1,27,-1,29,-1,-1,31,33,35,-1,37,39,-1,-1,-1,-1,-1,-1,-1,-1,-1,-1,-1,-1,-1,-1,-1,-1],"loss_changes":[1.4522944E9,2.4192352E8,3.1225773E8,2.6176832E7,1.7813492E7,4.6254016E7,8.34087E7,9.128384E6,1.0331568E7,4.432448E6,8.4036E6,3.2161088E7,1.069296E6,0E0,7.109696E6,0E0,1.307136E6,0E0,0E0,2.087392E6,1.566981E6,2.9409365E6,0E0,6.43398E6,1.0403264E7,0E0,0E0,0E0,0E0,0E0,0E0,0E0,0E0,0E0,0E0,0E0,0E0,0E0,0E0,0E0,0E0],"parents":[2147483647,0,0,1,1,2,2,3,3,4,4,5,5,6,6,7,7,8,8,9,9,10,10,11,11,12,12,14,14,16,16,19,19,20,20,21,21,23,23,24,24],"right_children":[2,4,6,8,10,12,14,16,18,20,22,24,26,-1,28,-1,30,-1,-1,32,34,36,-1,38,40,-1,-1,-1,-1,-1,-1,-1,-1,-1,-1,-1,-1,-1,-1,-1,-1],"split_conditions":[5.2555668E4,3.9777668E4,7.3518664E4,2.9333334E4,4.6151637E4,3.2223333E3,6E1,2.5222E4,1.333E3,-5.334E2,1.2223334E3,6.1555668E4,6.0778E4,3.7971567E2,-1.333E3,-1.4180473E2,2.7428643E4,-1.24681145E2,-3.7983692E1,1.156579E3,4.2333E4,-2E2,4.3065792E1,-1.666E3,-1.4446666E3,1.15222466E2,2.0720882E2,1.1594155E2,2.2051773E2,-2.4832483E2,-1.5665172E2,-5.257722E1,-1.04765465E2,-5.7003246E1,-2.5916107E1,-2.8742277E1,-1.7875782E0,5.197692E0,5.188341E1,5.9015778E1,1.202927E2],"split_indices":[16,16,16,16,16,24,6,13,24,24,24,16,16,0,24,0,20,0,0,17,10,24,0,24,24,0,0,0,0,0,0,0,0,0,0,0,0,0,0,0,0],"split_type":[0,0,0,0,0,0,0,0,0,0,0,0,0,0,0,0,0,0,0,0,0,0,0,0,0,0,0,0,0,0,0,0,0,0,0,0,0,0,0,0,0],"sum_hessian":[2.93E2,1.67E2,1.26E2,8.3E1,8.4E1,9.7E1,2.9E1,4.2E1,4.1E1,3.8E1,4.6E1,8.4E1,1.3E1,1.2E1,1.7E1,2.2E1,2E1,3.6E1,5E0,1.5E1,2.3E1,4E1,6E0,4E1,4.4E1,6E0,7E0,7E0,1E1,1E1,1E1,1E1,5E0,7E0,1.6E1,2.1E1,1.9E1,1E1,3E1,1.3E1,3.1E1],"tree_param":{"num_deleted":"0","num_feature":"25","num_nodes":"41","size_leaf_vector":"1"}},{"base_weights":[9.9862366E1,-1.5089524E3,2.5658794E3,-2.8259595E3,-2.7225882E2,2.0482253E3,3.3345068E2,-3.5747014E3,-2.1704465E3,-3.922749E2,4.5871207E2,1.0893955E3,2.8260776E3,-1.451377E2,-2.0222139E2,-4.7978092E1,-2.2836655E3,-5.6298083E2,2.5543988E2,5.3899975E1,-2.733356E1,6.3072656E2,1.2679471E3,6.5214066E1,2.9428313E3,-1.3670023E2,-9.2470894E1,-4.0562996E1,-1.732289E1,2.538948E1,4.347461E0,4.3883205E1,2.193473E1,1.0181628E2,4.618249E1,1.7394327E2,1.16042015E2],"categories":[],"categories_nodes":[],"categories_segments":[],"categories_sizes":[],"default_left":[0,0,0,0,0,0,0,0,0,0,0,0,0,0,0,0,0,0,0,0,0,0,0,0,0,0,0,0,0,0,0,0,0,0,0,0,0],"id":40,"left_children":[1,3,5,7,9,11,-1,13,15,17,19,21,23,-1,-1,-1,25,27,29,-1,-1,31,33,-1,35,-1,-1,-1,-1,-1,-1,-1,-1,-1,-1,-1,-1],"loss_changes":[1.2059831E9,2.989177E8,2.412208E8,3.592339E7,8.601854E6,7.747069E7,0E0,8.85248E5,4.663472E6,9.321013E6,9.30601E6,3.295076E6,6.644608E6,0E0,0E0,0E0,3.743824E6,3.266972E6,7.211825E5,0E0,0E0,3.73692E5,7.37842E6,0E0,9.930144E6,0E0,0E0,0E0,0E0,0E0,0E0,0E0,0E0,0E0,0E0,0E0,0E0],"parents":[2147483647,0,0,1,1,2,2,3,3,4,4,5,5,7,7,8,8,9,9,10,10,11,11,12,12,16,16,17,17,18,18,21,21,22,22,24,24],"right_children":[2,4,6,8,10,12,-1,14,16,18,20,22,24,-1,-1,-1,26,28,30,-1,-1,32,34,-1,36,-1,-1,-1,-1,-1,-1,-1,-1,-1,-1,-1,-1],"split_conditions":[5.4E4,4.1111E4,7.7333664E4,2.9333334E4,2.8353457E3,6.2444332E4,3.3345068E2,2.5222E4,3E4,5.0296555E4,4.6363727E4,5.6888668E4,8E0,-1.451377E2,-2.0222139E2,-4.7978092E1,3.1888666E4,4.6151637E4,5.071443E4,5.3899975E1,-2.733356E1,5.4444668E4,5.74666E4,6.5214066E1,7.06E4,-1.3670023E2,-9.2470894E1,-4.0562996E1,-1.732289E1,2.538948E1,4.347461E0,4.3883205E1,2.193473E1,1.0181628E2,4.618249E1,1.7394327E2,1.16042015E2],"split_indices":[16,16,16,16,17,16,0,13,11,16,12,16,6,0,0,0,16,16,18,0,0,11,11,0,13,0,0,0,0,0,0,0,0,0,0,0,0],"split_type":[0,0,0,0,0,0,0,0,0,0,0,0,0,0,0,0,0,0,0,0,0,0,0,0,0,0,0,0,0,0,0,0,0,0,0,0,0],"sum_hessian":[3.02E2,1.83E2,1.19E2,8.8E1,9.5E1,1.07E2,1.2E1,3.9E1,4.9E1,8.2E1,1.3E1,4.9E1,5.8E1,1.9E1,2E1,5E0,4.4E1,6.5E1,1.7E1,8E0,5E0,1.5E1,3.4E1,5E0,5.3E1,1.9E1,2.5E1,2.9E1,3.6E1,6E0,1.1E1,5E0,1E1,9E0,2.5E1,2.6E1,2.7E1],"tree_param":{"num_deleted":"0","num_feature":"25","num_nodes":"37","size_leaf_vector":"1"}},{"base_weights":[7.050452E1,-1.4824594E3,2.3452305E3,-2.663014E3,-3.590565E2,1.7179546E3,4.651312E3,-3.4171436E3,-2.1832947E3,-6.2333307E2,5.298164E2,9.650595E2,2.3326155E3,3.3073056E2,3.1073354E3,-2.1435257E2,-1.4662474E2,-2.4115217E3,-1.2774564E3,-9.692612E1,-4.8290936E2,9.054928E1,5.0039257E1,3.3450977E2,1.4430978E3,1.8789498E3,1.7236858E2,5.6519073E1,1.918434E2,-1.3402055E2,-9.221691E1,-7.3514885E1,-3.876426E1,-3.430518E1,4.9308696E0,-6.565503E0,1.8563509E1,-2.3366796E1,2.9891855E1,5.6612324E1,1.1711849E2,6.320923E1,1.1436747E2],"categories":[],"categories_nodes":[],"categories_segments":[],"categories_sizes":[],"default_left":[0,0,0,0,0,0,0,0,0,0,0,0,0,0,0,0,0,0,0,0,0,0,0,0,0,0,0,0,0,0,0,0,0,0,0,0,0,0,0,0,0,0,0],"id":41,"left_children":[1,3,5,7,9,11,13,15,17,19,21,23,25,-1,27,-1,-1,29,31,-1,33,35,-1,37,39,41,-1,-1,-1,-1,-1,-1,-1,-1,-1,-1,-1,-1,-1,-1,-1,-1,-1],"loss_changes":[1.1233005E9,2.4970291E8,1.786142E8,2.5822272E7,2.3351264E7,4.541475E7,6.129088E7,1.762624E6,9.116832E6,1.3099834E7,4.6676445E6,1.398576E7,2.1843232E7,0E0,2.0181168E7,0E0,0E0,2.07184E6,2.1585E5,0E0,8.339061E6,8.583986E5,0E0,4.924644E6,4.89544E6,7.653312E6,0E0,0E0,0E0,0E0,0E0,0E0,0E0,0E0,0E0,0E0,0E0,0E0,0E0,0E0,0E0,0E0,0E0],"parents":[2147483647,0,0,1,1,2,2,3,3,4,4,5,5,6,6,7,7,8,8,9,9,10,10,11,11,12,12,14,14,17,17,18,18,20,20,21,21,23,23,24,24,25,25],"right_children":[2,4,6,8,10,12,14,16,18,20,22,24,26,-1,28,-1,-1,30,32,-1,34,36,-1,38,40,42,-1,-1,-1,-1,-1,-1,-1,-1,-1,-1,-1,-1,-1,-1,-1,-1,-1],"split_conditions":[5.4E4,4.0222332E4,7.3518664E4,2.6111E4,1.1334E3,6.1555668E4,6E1,-2.1209091E2,7.5E2,-2.666E3,2.2451228E3,-2.1209091E2,6E2,3.3073056E2,-1.6666666E3,-2.1435257E2,-1.4662474E2,3.1888666E4,1.9507886E3,-9.692612E1,4.9333E4,4.8222E4,5.0039257E1,-3.667E3,2.3333333E3,6.8333E4,1.7236858E2,5.6519073E1,1.918434E2,-1.3402055E2,-9.221691E1,-7.3514885E1,-3.876426E1,-3.430518E1,4.9308696E0,-6.565503E0,1.8563509E1,-2.3366796E1,2.9891855E1,5.6612324E1,1.1711849E2,6.320923E1,1.1436747E2],"split_indices":[16,10,16,16,24,16,6,24,24,24,17,24,24,0,24,0,0,16,17,0,16,10,0,24,24,10,0,0,0,0,0,0,0,0,0,0,0,0,0,0,0,0,0],"split_type":[0,0,0,0,0,0,0,0,0,0,0,0,0,0,0,0,0,0,0,0,0,0,0,0,0,0,0,0,0,0,0,0,0,0,0,0,0,0,0,0,0,0,0],"sum_hessian":[3.16E2,1.88E2,1.28E2,9.1E1,9.7E1,1.02E2,2.6E1,3.3E1,5.8E1,7.5E1,2.2E1,4.7E1,5.5E1,1E1,1.6E1,9E0,2.4E1,4.5E1,1.3E1,6E0,6.9E1,1.2E1,1E1,2.1E1,2.6E1,4.1E1,1.4E1,5E0,1.1E1,2.8E1,1.7E1,8E0,5E0,5.1E1,1.8E1,7E0,5E0,5E0,1.6E1,2.1E1,5E0,1.8E1,2.3E1],"tree_param":{"num_deleted":"0","num_feature":"25","num_nodes":"43","size_leaf_vector":"1"}},{"base_weights":[-7.758783E0,-1.6050182E3,2.1929673E3,-2.6822522E3,-3.7489108E2,1.4935361E3,4.9353755E3,-2.9568748E3,-1.646244E3,-8.1743036E2,-1.6561252E2,7.0159485E2,2.1052014E3,3.2940353E2,1.7878342E2,-2.0223218E2,-2.7341533E3,-4.4051792E1,-9.0492775E1,-9.5366473E2,-7.9480143E0,-2.7274762E2,4.3095867E1,4.7683984E2,1.00364764E3,1.454184E3,2.4351555E3,-1.4462766E2,-1.0490613E2,-3.561211E1,-7.594942E1,-7.296566E0,-3.2138645E1,3.320918E1,-1.16800785E1,2.5586687E1,7.7400826E1,8.9837944E1,9.204753E0,1.35482E2,7.450686E1],"categories":[],"categories_nodes":[],"categories_segments":[],"categories_sizes":[],"default_left":[0,0,0,0,0,0,0,0,0,0,0,0,0,0,0,0,0,0,0,0,0,0,0,0,0,0,0,0,0,0,0,0,0,0,0,0,0,0,0,0,0],"id":42,"left_children":[1,3,5,7,9,11,13,15,17,19,21,23,25,-1,-1,-1,27,-1,-1,29,-1,31,-1,33,35,37,39,-1,-1,-1,-1,-1,-1,-1,-1,-1,-1,-1,-1,-1,-1],"loss_changes":[1.1283616E9,2.4546947E8,2.5157568E8,2.329888E7,8.014655E6,5.1322944E7,3.711712E7,7.596096E6,1.28498E6,2.36018E6,6.950242E6,2.847926E6,9.561984E6,0E0,0E0,0E0,6.81088E5,0E0,0E0,2.057194E6,0E0,2.5340122E6,0E0,4.148057E6,4.56348E6,9.676536E6,6.078608E6,0E0,0E0,0E0,0E0,0E0,0E0,0E0,0E0,0E0,0E0,0E0,0E0,0E0,0E0],"parents":[2147483647,0,0,1,1,2,2,3,3,4,4,5,5,6,6,7,7,8,8,9,9,10,10,11,11,12,12,16,16,19,19,21,21,23,23,24,24,25,25,26,26],"right_children":[2,4,6,8,10,12,14,16,18,20,22,24,26,-1,-1,-1,28,-1,-1,30,-1,32,-1,34,36,38,40,-1,-1,-1,-1,-1,-1,-1,-1,-1,-1,-1,-1,-1,-1],"split_conditions":[5.2333332E4,4.0889E4,7.3518664E4,3.1888666E4,4.5777668E4,6.0555668E4,5.9E1,2.3407445E4,3.1609768E3,6E0,3.7906416E3,4E0,3.482833E3,3.2940353E2,1.7878342E2,-2.0223218E2,3.2988796E3,-4.4051792E1,-9.0492775E1,2.4527703E3,-7.9480143E0,2.7343958E3,4.3095867E1,6E4,5.6444555E4,3.0378845E3,7.11665E4,-1.4462766E2,-1.0490613E2,-3.561211E1,-7.594942E1,-7.296566E0,-3.2138645E1,3.320918E1,-1.16800785E1,2.5586687E1,7.7400826E1,8.9837944E1,9.204753E0,1.35482E2,7.450686E1],"split_indices":[16,16,16,16,16,16,6,16,23,5,17,5,21,0,0,0,23,0,0,19,0,19,0,12,16,19,13,0,0,0,0,0,0,0,0,0,0,0,0,0,0],"split_type":[0,0,0,0,0,0,0,0,0,0,0,0,0,0,0,0,0,0,0,0,0,0,0,0,0,0,0,0,0,0,0,0,0,0,0,0,0,0,0,0,0],"sum_hessian":[3.19E2,1.85E2,1.34E2,9.8E1,8.7E1,1.08E2,2.6E1,7.6E1,2.2E1,2.7E1,6E1,4.8E1,6E1,1E1,1.6E1,1E1,6.6E1,5E0,1.7E1,2.2E1,5E0,5.5E1,5E0,2.9E1,1.9E1,2.2E1,3.8E1,5E1,1.6E1,1.7E1,5E0,4.2E1,1.3E1,2.3E1,6E0,1.1E1,8E0,1.7E1,5E0,2.8E1,1E1],"tree_param":{"num_deleted":"0","num_feature":"25","num_nodes":"41","size_leaf_vector":"1"}},{"base_weights":[1.1380533E2,-1.3065172E3,2.2731714E3,-2.3681543E3,-2.067714E2,1.4071206E3,3.8274285E3,-2.6999817E3,-1.5132635E3,4.1217657E2,-3.7821066E2,9.5059656E2,1.8392704E3,1.4750243E2,5.0687935E3,-3.187792E3,-1.1683416E2,-8.20317E1,-3.8639977E1,-1.2869504E1,7.175187E2,-6.915971E2,-1.5806142E2,5.671731E2,1.1579637E3,2.0764944E3,4.7183575E1,3.175416E2,1.4964507E2,-1.2257294E2,-1.8394554E2,5.4650066E1,1.9373632E1,-2.4032782E1,-3.9690136E1,-1.9916598E-2,-4.844216E1,1.3542383E1,3.8377712E1,7.063953E1,1.5043387E1,7.87209E1,1.4616026E2],"categories":[],"categories_nodes":[],"categories_segments":[],"categories_sizes":[],"default_left":[0,0,0,0,0,0,0,0,0,0,0,0,0,0,0,0,0,0,0,0,0,0,0,0,0,0,0,0,0,0,0,0,0,0,0,0,0,0,0,0,0,0,0],"id":43,"left_children":[1,3,5,7,9,11,13,15,17,19,21,23,25,-1,27,29,-1,-1,-1,-1,31,33,35,37,39,41,-1,-1,-1,-1,-1,-1,-1,-1,-1,-1,-1,-1,-1,-1,-1,-1,-1],"loss_changes":[9.200018E8,2.108334E8,1.5479622E8,2.2012448E7,9.705967E6,1.3639952E7,3.079104E7,4.070528E6,1.372888E6,4.27362E6,4.789104E6,2.523616E6,6.32632E6,0E0,2.357456E7,2.1984E4,0E0,0E0,0E0,0E0,1.311464E6,2.43677E5,5.4963195E6,7.421585E5,5.03521E6,8.151064E6,0E0,0E0,0E0,0E0,0E0,0E0,0E0,0E0,0E0,0E0,0E0,0E0,0E0,0E0,0E0,0E0,0E0],"parents":[2147483647,0,0,1,1,2,2,3,3,4,4,5,5,6,6,7,7,8,8,9,9,10,10,11,11,12,12,14,14,15,15,20,20,21,21,22,22,23,23,24,24,25,25],"right_children":[2,4,6,8,10,12,14,16,18,20,22,24,26,-1,28,30,-1,-1,-1,-1,32,34,36,38,40,42,-1,-1,-1,-1,-1,-1,-1,-1,-1,-1,-1,-1,-1,-1,-1,-1,-1],"split_conditions":[5.4444668E4,4.1111E4,7.1222336E4,3.1888666E4,4.5667E4,6.0889E4,7.6667E4,2.5222E4,2.1431719E3,3.4098992E3,4.6222332E4,1.111E3,6.5444332E4,1.4750243E2,5.9E1,2.9333E4,-1.1683416E2,-8.20317E1,-3.8639977E1,-1.2869504E1,4.4333E4,4.7111E4,3.7024678E3,5.1666668E4,1.1064156E4,2.1171436E3,4.7183575E1,3.175416E2,1.4964507E2,-1.2257294E2,-1.8394554E2,5.4650066E1,1.9373632E1,-2.4032782E1,-3.9690136E1,-1.9916598E-2,-4.844216E1,1.3542383E1,3.8377712E1,7.063953E1,1.5043387E1,7.87209E1,1.4616026E2],"split_indices":[16,16,16,16,15,16,16,16,17,23,16,17,14,0,6,15,0,0,0,0,12,14,19,14,23,17,0,0,0,0,0,0,0,0,0,0,0,0,0,0,0,0,0],"split_type":[0,0,0,0,0,0,0,0,0,0,0,0,0,0,0,0,0,0,0,0,0,0,0,0,0,0,0,0,0,0,0,0,0,0,0,0,0,0,0,0,0,0,0],"sum_hessian":[2.98E2,1.8E2,1.18E2,9.1E1,8.9E1,7.7E1,4.1E1,6.4E1,2.7E1,1.9E1,7E1,3.9E1,3.8E1,2.6E1,1.5E1,2.4E1,4E1,2.2E1,5E0,6E0,1.3E1,2.8E1,4.2E1,1.5E1,2.4E1,2.9E1,9E0,8E0,7E0,1.2E1,1.2E1,5E0,8E0,1.1E1,1.7E1,3.6E1,6E0,7E0,8E0,1.8E1,6E0,2E1,9E0],"tree_param":{"num_deleted":"0","num_feature":"25","num_nodes":"43","size_leaf_vector":"1"}},{"base_weights":[4.877373E1,-1.1387662E3,2.387375E3,-2.3754246E3,-2.2034673E2,1.8093694E3,5.272693E3,-2.761078E3,-1.6020677E3,-9.780003E1,-1.21881256E2,1.2450383E3,2.5638604E3,3.267238E2,1.931088E2,-2.880861E3,-7.7263336E1,-8.9359E1,-4.3480556E1,-4.3819208E2,3.481661E2,6.4458984E2,1.8197032E3,8.282955E1,3.0246746E3,-1.148017E2,-1.643703E2,-3.889588E1,-1.291852E1,7.9654856E0,4.8717342E1,-1.1162305E1,4.5805145E1,5.9872692E1,1.0474389E2,9.660577E1,1.7028639E2],"categories":[],"categories_nodes":[],"categories_segments":[],"categories_sizes":[],"default_left":[0,0,0,0,0,0,0,0,0,0,0,0,0,0,0,0,0,0,0,0,0,0,0,0,0,0,0,0,0,0,0,0,0,0,0,0,0],"id":44,"left_children":[1,3,5,7,9,11,13,15,17,-1,19,21,23,-1,-1,25,-1,-1,-1,27,29,31,33,-1,35,-1,-1,-1,-1,-1,-1,-1,-1,-1,-1,-1,-1],"loss_changes":[8.164331E8,2.2095197E8,1.5556493E8,2.0331104E7,1.9073524E7,3.2573664E7,3.238944E6,3.412512E6,2.513448E6,0E0,1.621012E7,1.6079872E7,9.62224E6,0E0,0E0,3.864448E6,0E0,0E0,0E0,3.76986E6,5.048139E6,6.330867E6,1.77216E6,0E0,2.578864E6,0E0,0E0,0E0,0E0,0E0,0E0,0E0,0E0,0E0,0E0,0E0,0E0],"parents":[2147483647,0,0,1,1,2,2,3,3,4,4,5,5,6,6,7,7,8,8,10,10,11,11,12,12,15,15,19,19,20,20,21,21,22,22,24,24],"right_children":[2,4,6,8,10,12,14,16,18,-1,20,22,24,-1,-1,26,-1,-1,-1,28,30,32,34,-1,36,-1,-1,-1,-1,-1,-1,-1,-1,-1,-1,-1,-1],"split_conditions":[5.6888668E4,3.996289E4,7.6667E4,3.0370555E4,-3E3,2.2233333E2,3E0,1.334E3,1.2114852E3,-9.780003E1,4.8888668E4,6.4704E4,6.2777668E4,3.267238E2,1.931088E2,4.1928073E2,-7.7263336E1,-8.9359E1,-4.3480556E1,-5.334E2,1.2223334E3,-3.667E3,-2.1113333E3,8.282955E1,6E2,-1.148017E2,-1.643703E2,-3.889588E1,-1.291852E1,7.9654856E0,4.8717342E1,-1.1162305E1,4.5805145E1,5.9872692E1,1.0474389E2,9.660577E1,1.7028639E2],"split_indices":[16,16,10,16,24,24,5,24,17,0,10,16,16,0,0,17,0,0,0,24,24,24,24,0,17,0,0,0,0,0,0,0,0,0,0,0,0],"split_type":[0,0,0,0,0,0,0,0,0,0,0,0,0,0,0,0,0,0,0,0,0,0,0,0,0,0,0,0,0,0,0,0,0,0,0,0,0],"sum_hessian":[2.92E2,1.94E2,9.8E1,8.2E1,1.12E2,8.3E1,1.5E1,5.3E1,2.9E1,5E0,1.07E2,4.9E1,3.4E1,6E0,9E0,4.7E1,6E0,2.2E1,7E0,6.4E1,4.3E1,2.5E1,2.4E1,1.3E1,2.1E1,2.2E1,2.5E1,2.1E1,4.3E1,3.4E1,9E0,6E0,1.9E1,9E0,1.5E1,7E0,1.4E1],"tree_param":{"num_deleted":"0","num_feature":"25","num_nodes":"37","size_leaf_vector":"1"}},{"base_weights":[6.6628426E1,-1.0812377E3,2.1793667E3,-2.163034E3,-1.5110033E2,1.5734652E3,4.103784E3,